%YAML:1.0
---
opencv_ml_ann_mlp:
   format: 3
   layer_sizes: [ 180, 80, 20, 1 ]
   activation_function: SIGMOID_SYM
   f_param1: 6.6666666666666663e-01
   f_param2: 1.7159000000000000e+00
   min_val: -9.4999999999999996e-01
   max_val: 9.4999999999999996e-01
   min_val1: -9.7999999999999998e-01
   max_val1: 9.7999999999999998e-01
   training_params:
      train_method: BACKPROP
      dw_scale: 1.0000000000000001e-01
      moment_scale: 0.
      term_criteria:
         epsilon: 1.0000000000000000e-08
         iterations: 30000
   input_scale:
      - 1.8483682742176246e-05
      - -4.2336067565331509e-01
      - 3.7156337418934774e-04
      - -6.7273885149709042e-02
      - 1.5830000051178004e-04
      - -3.7777082202105121e-02
      - 4.2929828247642137e-04
      - -7.5078334628302573e-02
      - 3.7200887486702291e-04
      - -7.4171736314954217e-02
      - 1.5625908591494661e-04
      - -3.6730923189908497e-02
      - 8.4355685634713041e-05
      - -4.3703379409372634e-02
      - 3.3439069120418818e-04
      - -6.5308481062382628e-02
      - 4.4906120652097762e-04
      - -1.0771263311181041e-01
      - 2.9650715115699821e-04
      - -7.8630375391174900e-02
      - 3.8265725145168278e-04
      - -9.1380859848417165e-02
      - 4.1059392250695446e-04
      - -1.0004345039091719e-01
      - 3.5198643951754805e-04
      - -9.3492064641131009e-02
      - 3.5524084789599467e-04
      - -1.1870673775398323e-01
      - 3.8427465755008549e-04
      - -1.3392113686873125e-01
      - 2.7776998614847411e-04
      - -1.6303181280558673e-01
      - 1.1681503923304243e-04
      - -9.0887707061314049e-02
      - 1.2582178804055788e-04
      - -1.1144073500424873e-01
      - 8.2423843465599130e-05
      - -1.3338791597135102e-01
      - 1.3215804059594805e-04
      - -1.6531542406718192e-01
      - 1.8311574131708096e-04
      - -1.3364210320177006e-01
      - 6.6752534814317223e-05
      - -3.9291874312548519e-02
      - 2.9806371131467903e-04
      - -1.1804205003694568e-01
      - 2.8180402006647900e-04
      - -1.4215344973043917e-01
      - 2.9378146056593837e-04
      - -1.4921415017216610e-01
      - 1.8780342171184278e-04
      - -1.2414292590921867e-01
      - 1.9649960433997646e-04
      - -1.2624155362864437e-01
      - 2.6793124864641846e-04
      - -1.1463070041238313e-01
      - 1.7327606814017445e-04
      - -7.9548281252759895e-02
      - 1.8450660891827512e-04
      - -8.1446033673031173e-02
      - 1.5917835642729932e-04
      - -1.4431575774188010e-01
      - 3.2492760948870297e-04
      - -5.8181844854639453e-02
      - 4.4287389132534961e-04
      - -5.6228558170201975e-02
      - 6.7042859916020055e-04
      - -6.3195530421100612e-02
      - 4.7178488983335115e-04
      - -6.1089979963814198e-02
      - 6.9032581974508864e-04
      - -7.6557549032454930e-02
      - 3.8471074011208801e-04
      - -5.5114544287569969e-02
      - 3.9732498449313969e-04
      - -4.6306663008708296e-02
      - 4.9030194192952261e-04
      - -5.1550322781670328e-02
      - 3.6782101249391113e-04
      - -3.8805179493504503e-02
      - 3.9872351847008506e-05
      - -1.3055153734465858e-02
      - 6.1989615020398802e-04
      - -4.1813379059459775e-02
      - 3.9777112331128718e-04
      - -4.6522683402754929e-02
      - 4.1229626841538382e-04
      - -4.1320137183321039e-02
      - 5.0181721222713647e-04
      - -3.7186091958320726e-02
      - 5.1756545892457878e-04
      - -5.5428597272963780e-02
      - 5.5809726875118192e-04
      - -5.0392068803567190e-02
      - 3.7390467959494097e-04
      - -4.9492462287778725e-02
      - 5.0131904315600076e-04
      - -5.5431574975104682e-02
      - 5.2118082344460460e-04
      - -4.9649918450541300e-02
      - 5.8331745379185443e-04
      - -6.1288852768898290e-02
      - 5.9294525333222043e-04
      - -5.0327196636031107e-02
      - 4.7671459846214089e-04
      - -4.3439216559117366e-02
      - 3.6833181464699332e-04
      - -5.5535968904101750e-02
      - 3.9299183103528679e-04
      - -5.9708776124285941e-02
      - 4.0029003316207944e-05
      - -1.5856396289428899e-02
      - 3.9341031134404556e-04
      - -6.2524039809683241e-02
      - 6.4700498811573427e-04
      - -5.1421314928768919e-02
      - 7.6623123090690485e-04
      - -4.4417735952999582e-02
      - 6.3603444776708172e-04
      - -3.9231685628349555e-02
      - 4.3265491751281549e-04
      - -1.8698912535946338e-01
      - 5.8353234667311296e-04
      - -3.6452476207830459e-02
      - 1.0681413553269559e-03
      - -3.5870463019027410e-02
      - 6.3473487001330811e-04
      - -3.7938080828337176e-02
      - 5.2238042592787231e-04
      - -3.0567414329317741e-02
      - 4.2124515754336816e-04
      - -3.4302075006453776e-02
      - 3.6085819204318228e-04
      - -3.0588214540988083e-02
      - 5.8206273595220407e-04
      - -3.2264974576833021e-02
      - 6.9750770543687665e-04
      - -3.6418808263347285e-02
      - 3.1809904422527781e-04
      - -2.7916325868026625e-02
      - 7.1157999982420937e-04
      - -4.2663476889380783e-02
      - 3.0069648738187854e-04
      - -2.2870883285725618e-02
      - 3.9561425489881920e-04
      - -3.5295123701976974e-02
      - 4.5049941990690041e-04
      - -3.6729852795069913e-02
      - 4.8642265151316679e-04
      - -3.2520445852809145e-02
      - 1.8497677510706027e-04
      - -1.7013224706747773e-01
      - 5.1888560668406254e-04
      - -3.1844533695951166e-02
      - 2.6187735996397262e-04
      - -3.2901812781701005e-02
      - 4.6993611841204130e-04
      - -3.7772950579740922e-02
      - 3.6048792477907465e-04
      - -3.1696114752962259e-02
      - 3.3862211006131440e-04
      - -4.5391441816943344e-02
      - 4.8020198304425931e-04
      - -3.4918615709784384e-02
      - 4.9094465770792653e-04
      - -2.8789082844834703e-02
      - 4.3837325981937970e-04
      - -5.8467330129307764e-02
      - 6.1183348089778134e-04
      - -3.8510966386188054e-02
      - 4.9345112495340429e-04
      - -5.0315534609982407e-02
      - 6.2811848188617267e-04
      - -4.2621117656006659e-02
      - 4.3605058924946140e-04
      - -4.3356322354013939e-02
      - 3.1657410716368929e-04
      - -3.3725247754761038e-02
      - 5.0050715693402228e-04
      - -5.8854422235129017e-02
      - 3.1408410003452977e-04
      - -1.0130145237497874e-01
      - 4.5453707608349809e-04
      - -5.4108861855926803e-02
      - 2.7655285164299728e-04
      - -4.2433536940799869e-02
      - 3.2774472478199146e-04
      - -5.2179823251217811e-02
      - 1.9722177435636118e-04
      - -2.9678124382765188e-02
      - 6.1198174332607370e-04
      - -7.5456000270312254e-02
      - 1.5435281848393505e-04
      - -3.5199701738141846e-02
      - 3.0510614326282774e-04
      - -4.7705925886779819e-02
      - 4.6461620177737752e-04
      - -6.4914056095538256e-02
      - 4.2680451437739748e-04
      - -5.1570062697295284e-02
      - 4.2344341173084263e-04
      - -5.5712030711517140e-02
      - 4.2383155372978447e-04
      - -6.9105366516728939e-02
      - 3.3518705602762663e-04
      - -4.7670982392252190e-02
      - 3.0959410290192120e-04
      - -5.9567920591115771e-02
      - 1.3994560068157416e-04
      - -2.2998556364377903e-02
      - 4.4071461100376726e-04
      - -8.6080454920029068e-02
      - 3.0816989871236403e-04
      - -6.2558086853827979e-02
      - 2.0169630984371743e-04
      - -4.8291831506309217e-02
      - 1.4963144564150341e-04
      - -6.5570732988224176e-02
      - 1.8556234674675569e-04
      - -6.3956045327990527e-02
      - 1.9516466467396854e-04
      - -9.3302643712992309e-02
      - 7.2496074375743769e-05
      - -1.8812924832000207e-02
      - 3.8040348359143054e-04
      - -4.7257516556105404e-02
      - 2.8319934581651305e-04
      - -5.1446621134585681e-02
      - 4.4380928888003386e-04
      - -8.1699930895331785e-02
      - 2.9918553986105667e-04
      - -6.3779454385308354e-02
      - 3.3565920013513300e-04
      - -6.4300680693840914e-02
      - 8.0427507058671114e-05
      - -1.7551405333697485e-02
      - 5.6180532239983010e-04
      - -5.4872482496951439e-02
      - 3.7742242798736113e-04
      - -3.7318001639479619e-02
      - 3.9069139545452501e-04
      - -2.0064197827668492e-01
      - 6.4131839733628485e-04
      - -2.8740979392518049e-02
      - 4.2127625403478122e-04
      - -3.7044841018491856e-02
      - 4.9973202204923995e-04
      - -2.5885698656161402e-02
      - 4.9888384229086725e-04
      - -3.6595478887500629e-02
      - 7.5189671049264253e-04
      - -4.6501518846231729e-02
      - 5.6241570067518045e-04
      - -4.9894731566027251e-02
      - 6.6212018063722033e-04
      - -2.9987733620199322e-02
      - 8.2042789104516472e-04
      - -4.8500028618943251e-02
      - 6.9869660269946711e-04
      - -2.9244139572625703e-02
      - 1.6872602024948979e-04
      - -2.2959110973182123e-02
      - 4.7955113376496963e-04
      - -3.0510875698585831e-02
      - 8.1420871216178982e-05
      - -1.3274298155455114e-02
      - 3.2964509003831523e-04
      - -3.7237331738261478e-02
      - 3.4024984995045950e-04
      - -2.7835475740057108e-02
      - 4.4898972750226579e-04
      - -4.5977532476754658e-02
      - 4.5875800940286838e-04
      - -3.2443071460716254e-02
      - 5.4586620637111290e-04
      - -3.4049947099040620e-02
      - 4.3979279571206334e-04
      - -3.7885653877443533e-02
      - 4.7054865942213614e-04
      - -2.9565027158359982e-02
      - 3.5454652516049454e-04
      - -6.9574247867948039e-02
      - 3.4345060316701739e-04
      - -3.0926843121430774e-02
      - 3.6857116083474867e-04
      - -3.9368512159218404e-02
      - 2.3918421227507307e-04
      - -2.9077496711994614e-02
      - 4.1337825937919407e-04
      - -4.3688465744675511e-02
      - 5.1064539140426143e-04
      - -4.8265531821780408e-02
      - 1.5952293450318769e-04
      - -2.7352049163771833e-02
      - 4.8882854707040619e-04
      - -3.3429614414770291e-02
      - 2.6109029916178503e-04
      - -3.1144041999139196e-02
      - 5.1154074135196799e-04
      - -3.7341718691039728e-02
      - 3.7121885573890376e-04
      - -2.1593770897926765e-01
      - 3.5068404256184991e-04
      - -2.2599999043497902e-02
      - 1.6929365920494876e-04
      - -2.0711895513537585e-02
      - 2.0838948687361549e-04
      - -1.7093216903026773e-02
      - 6.4991455237125542e-04
      - -3.4602135899115344e-02
      - 4.8126833079640565e-04
      - -3.3831884354869099e-02
      - 6.0414261030019374e-04
      - -4.7658534096912432e-02
      - 7.8138421227925037e-04
      - -3.1918652999435006e-02
      - 5.2570270719147776e-04
      - -3.9246128680481392e-02
      - 4.7136904002628547e-04
      - -4.1846170723819374e-02
      - 4.6172175335220078e-04
      - -5.1255231986360804e-02
      - 3.2786466860231059e-04
      - -3.7740769046964405e-02
      - 3.9716073463684514e-04
      - -2.9620642809940145e-02
      - 6.1729349806625077e-04
      - -4.0752590565623782e-02
      - 4.9627973088927702e-04
      - -3.1853711426436983e-02
      - 1.2087376897338527e-04
      - -3.2690669883836559e-01
      - 3.3842359001633464e-04
      - -5.5268785725240070e-02
      - 3.6050785735538128e-04
      - -6.0476247607015199e-02
      - 4.8249121220911929e-04
      - -5.9672565183540409e-02
      - 4.2460577800192627e-04
      - -4.6776502837900837e-02
      - 4.3569568091324858e-04
      - -8.6089591168267587e-02
      - 4.2624791034820989e-04
      - -4.6150354660898861e-02
      - 3.7980607947517796e-04
      - -3.2274369999869428e-02
      - 1.6009161570534064e-04
      - -4.8969711981339960e-02
      - 4.3567357880447774e-04
      - -5.0185928958931356e-02
      - 3.0483192503088732e-04
      - -4.5446499334491020e-02
      - 3.8834381763328956e-04
      - -4.7248490459560213e-02
      - 3.8738044085426856e-04
      - -4.7208685315718646e-02
      - 6.3190488399520665e-04
      - -6.2000004865655108e-02
      - 2.1550738654994882e-04
      - -6.1760284570487441e-02
   output_scale:
      - 5.2631578947368418e-01
      - 4.9999999999999994e-01
   inv_output_scale:
      - 1.8999999999999999e+00
      - -9.4999999999999996e-01
   weights:
      -
         - -4.6094927214889188e+00
         - 1.8086321476728674e+01
         - -1.5325252699810086e+00
         - 5.3945711061158370e+00
         - -1.9326907583669612e+00
         - -1.5533657212034777e+01
         - -1.8832375650062080e+01
         - 1.8112629840106713e+00
         - 2.9140682048580882e+01
         - 7.7854458988145847e+00
         - -2.9329185721984836e+00
         - 3.1286294102534535e+00
         - 7.2078896754499491e+00
         - -9.4117869172317548e+00
         - 3.4206130621118755e+00
         - -2.7005346047107263e+01
         - -7.6354130044515474e+00
         - 9.6177253932649780e+00
         - -2.8188820926579234e+00
         - 7.1480464936491339e+00
         - 3.9956276261078698e+00
         - -9.7473118557931162e+00
         - -8.0305844382306524e-01
         - -2.6260503305491213e+01
         - 3.1347988086980716e+00
         - -9.8419726805341448e+00
         - -7.3212972233501166e+00
         - -2.8737903412535950e+01
         - -1.4206180028179391e+01
         - 4.3140072329887547e+00
         - 1.3749859563377205e+01
         - -1.2317443711849447e+00
         - -4.3880800209528079e+00
         - 1.2764634843071804e+01
         - -7.5023338689211228e+00
         - -2.8034432357037842e+00
         - 8.2079814028356459e+00
         - -9.3708926672777686e+00
         - -2.1494931844717193e+01
         - -1.6704428591517200e+01
         - -5.5998121609986979e+00
         - 2.5800825801746001e+01
         - -5.3189900295673720e+00
         - -1.5771311324388138e+00
         - -1.9147774651482319e-01
         - 5.0944078372524286e+00
         - -1.0421304115537142e+01
         - -2.0951395453082222e-01
         - 8.2604864660697146e+00
         - -1.1179864012498133e+01
         - 1.9329758382459570e+00
         - -1.3516120238127405e+01
         - -7.6635182802500150e+00
         - 3.1212895142946433e+00
         - 6.3378946923611885e+01
         - 6.6608686570927258e+00
         - -1.4942133594356064e+00
         - 3.5962286053028730e-01
         - 2.5129650933063066e+00
         - 1.4396224401584506e+01
         - 2.3212883439725078e+00
         - -1.3011639444706695e+00
         - -5.9551951750747225e+00
         - -1.6394570541341871e+01
         - -1.8653324472465363e-01
         - 1.0868123976723272e+01
         - -6.8668236566221603e+00
         - -3.0743748916013963e+01
         - -1.4188082455593470e+01
         - -2.7433676626583314e+00
         - -1.6568816466601100e+00
         - -2.7908694444352062e+00
         - -4.2538090491592856e-01
         - -2.7855290949225080e+00
         - -2.8328234164506720e+00
         - -1.2795520472091003e+01
         - 1.5223636421118240e+01
         - 1.6416288768797060e+01
         - -1.9165498728598706e+01
         - -2.8195807758582738e+00
         - -2.8463686344989285e+00
         - 3.6554470489393256e+00
         - -2.5290210177719574e-01
         - 2.1685489367958612e+00
         - -1.0097014446406558e+01
         - 5.1612721117723881e+00
         - 4.1079076969000212e+00
         - -2.1154871229567367e+00
         - -1.5423110043133632e+00
         - 5.8456155968651480e-01
         - 1.1496513070827901e+00
         - -7.2803544249777385e-01
         - -2.7591830167257951e+00
         - 5.7700788199159814e-01
         - -9.8045328311073321e-01
         - -7.7269727212524169e+00
         - -4.1718389227513297e+00
         - -2.6169265386979994e+00
         - -5.7070440595671368e+00
         - 3.1849704724745225e+00
         - 2.3142709265411257e+00
         - -9.5938008712417602e-02
         - -9.4197823438184303e-01
         - -8.3318595128078279e+00
         - 1.0371460271906857e+01
         - 1.5338118424720120e+00
         - -4.1447766869270506e+00
         - 2.7677948771163066e+00
         - 1.5956888106952136e+00
         - -2.7980905838115655e-01
         - -3.3156757143273274e-01
         - 1.6633659007233479e+00
         - -5.6491107946068801e+00
         - -1.0051035021959866e+01
         - 7.0971981860986355e-01
         - -1.2227277883674876e+00
         - -1.5863204847149284e+00
         - -4.9368470232395580e+00
         - 2.1949435017386256e+00
         - -2.7692625596688405e+00
         - 3.8626409979963290e+00
         - -3.8898932562526669e+00
         - -9.3909873991394246e+00
         - 1.9845271541389322e+00
         - -4.4507527587858835e+00
         - 7.4050763745629675e+00
         - 2.8503742314317262e+00
         - -8.1302806072608969e-01
         - 5.1678487443556909e-01
         - -5.0716955707622224e+00
         - 4.9517384368660409e+00
         - 2.4785612917330258e+00
         - 4.9888888555870875e-01
         - 1.0303033217353963e+00
         - 2.7738163502355784e+00
         - 1.3469645445006106e+00
         - 2.9217522407194330e+00
         - 4.0411410190882435e-01
         - 1.0381403976163555e+00
         - 2.1543263626455875e+00
         - 4.4943464063881744e-01
         - -3.5790816474037235e-01
         - -3.6867891623704736e+00
         - -1.0582425856338742e-01
         - -1.3416360767832722e+00
         - 9.1713686495494890e+00
         - 1.8739769495395058e+00
         - 1.1461960853427033e+00
         - -4.7126650138414412e+00
         - -8.9344823802197160e-01
         - 1.3181657021408648e+00
         - -1.7160005942568333e+00
         - -1.1740180986293167e+00
         - -7.9620591103581784e-01
         - 6.3857897313176359e-01
         - 4.3004471525742499e-01
         - 3.0068799542009419e+00
         - 1.7188512769833268e+00
         - -2.4437628562374765e+00
         - 3.5773758224302603e+00
         - -4.3342087833357565e+00
         - 1.5277418137272187e+00
         - -1.5968413138604847e+00
         - 8.2380632918311747e-01
         - -3.0328312328327831e+00
         - -2.7199155816040399e+00
         - 4.1768987003150093e-01
         - -1.0080842008167072e+00
         - 1.8010929713289553e-01
         - 2.4341984584853753e+00
         - 1.5790558906510335e+00
         - 3.3445914606302651e-01
         - 6.0995168922386567e-01
         - -2.4226575221108296e-01
         - 1.9286463308542441e+00
         - -5.4628421576303392e+00
         - -2.1060524079484400e+00
         - 2.0802860947173443e+00
         - -1.4915060599459822e+00
         - 3.8770972331567205e-01
         - 2.7678736020253041e+00
         - -2.9503534694555453e+00
         - 2.4482530601091401e+00
         - -2.3603407121385285e+00
         - -9.4318123375536214e+00
         - -1.4763056894116986e+00
         - -4.4754764141083418e+00
         - -1.9123947189512117e-01
         - -1.1150345516978606e+00
         - 4.1204894325887818e+00
         - 9.1149664993360047e-01
         - 9.4949844944552564e-01
         - -1.2248565111173537e+00
         - -7.4976001332671141e+00
         - -7.9261796624783154e-01
         - -2.4214708390536699e+00
         - 1.3099078965843973e+00
         - -4.5162843740046199e+00
         - -4.8881368652617248e+00
         - -1.5385814515703033e+00
         - 4.2198151046555493e-01
         - 2.4920204204438834e-01
         - -1.2914374669358995e+01
         - 1.1720827307602171e+00
         - -3.0070925035200484e+00
         - 7.0214985803123646e+00
         - 2.2899618904939736e+00
         - -1.2960700016474864e+00
         - 6.3818359891563781e-01
         - -4.4098238561056702e+00
         - 3.0178751526577856e+00
         - 4.2396930606203515e-01
         - -8.0358682289931738e-01
         - 1.6063520100099393e+00
         - 5.7994338503615568e+00
         - 1.2146866421779501e+00
         - 1.6567435431261646e+00
         - 1.2851662406627062e+00
         - 9.7766745819257372e-01
         - 5.0771177556026039e+00
         - 1.3537159947517816e+00
         - -2.5879926204557480e-01
         - 1.0750621469141382e+00
         - -6.7941223561590354e+00
         - 1.6250176428458840e+00
         - 1.1922142810441960e+01
         - -7.3605152250321482e-01
         - -1.4959512296596427e+00
         - -2.5899633887059470e+00
         - -7.3648090535622851e-02
         - -2.0000550443803311e+00
         - -9.5895274437107425e-01
         - 5.6064573282439800e-01
         - -3.1399103659101999e+00
         - 3.3008315268155837e+00
         - -1.4914701552206306e+00
         - 4.9746177700702493e-01
         - -5.2132352333042027e+00
         - -5.3357944075893675e+00
         - 5.8501097152498860e-01
         - -2.9701459930324998e+00
         - 6.6692788702457131e+00
         - -7.0423766170376734e-01
         - 3.3413488810243028e+00
         - -8.3446987785402467e+00
         - 4.3492338963201815e+00
         - 2.5531014120555855e+00
         - -3.2523167079928079e+00
         - 1.4396463215121116e-01
         - -3.7040804439472336e-01
         - 4.4990268908989739e+00
         - 4.4431200163408455e+00
         - -7.7234878519871963e-01
         - 3.6351513519643897e-01
         - -4.9747671574040236e-01
         - 1.4533566144452177e+00
         - -5.6712275456109023e+00
         - -1.7413426532651961e+00
         - -5.4623830283641439e-01
         - -1.1914697780246433e+00
         - -1.1380543077089462e+00
         - 2.6099539561989245e+00
         - -1.7202162384849162e+00
         - -7.4356981282273455e+00
         - 1.8148682288063398e+01
         - 1.8347365635459842e+00
         - -2.1717667369279625e+00
         - -6.6551826086761023e-01
         - -2.5553856699006922e-01
         - -1.0256185155954405e+00
         - -9.1978782144735982e-01
         - -5.1263563084167822e+00
         - -2.3091023629859215e+00
         - -9.8822428184752464e+00
         - 6.5583951693027986e-01
         - 1.7673858209370548e+00
         - 2.3285168938471310e+00
         - 2.1057677206342746e+00
         - 3.3432676773206227e+00
         - -4.6611934961386758e+00
         - 1.2558612962588442e+00
         - -1.0014159769106486e+01
         - 1.3402010059575360e+01
         - 3.1381483560082857e-01
         - -3.8084091705854601e+00
         - 1.4369627146960669e+01
         - -2.6487153925211082e+00
         - 3.9684416646416298e-01
         - 1.9152227606572165e+00
         - -8.8696263934257558e-01
         - -1.7008928503859466e+00
         - -3.8095056153821396e+00
         - -3.9000942132912345e-02
         - 3.1391634976225585e-01
         - 7.3083749259265540e-01
         - 2.5057527064523302e+00
         - 9.0737689797821497e-01
         - 2.0217384331510799e+00
         - -5.9484520395759766e-01
         - -2.2720443600194873e+00
         - 3.5399202279400810e+00
         - -1.9942479718025616e+00
         - 4.6381756131892811e+00
         - 4.8463787734814581e+00
         - 1.0880485595986491e+00
         - 1.8023576014813557e+01
         - -4.5881126072624762e-01
         - 2.3764038040389002e+00
         - -6.3574151083511055e+00
         - -7.2900895730529580e-01
         - 7.1752929980003692e+00
         - -6.6960095569546429e-01
         - -1.9102190214191539e+00
         - -1.4759562003777686e+00
         - 3.9047694119288989e-01
         - -1.9543328142277232e+00
         - 1.5113536701222268e+00
         - 7.5889769382336081e-01
         - -1.7454959937989540e+00
         - 8.6482639182343028e+00
         - 2.2771634715006055e+00
         - 5.5402365616147744e+00
         - 1.5135355644660566e+00
         - 1.9657080629406749e+00
         - -6.6130811718868205e+00
         - 2.9821368607553191e+00
         - 3.0565541173397568e+00
         - 6.6615654695878435e-01
         - -1.2360351986229849e+00
         - 4.1288576800286334e+00
         - -1.8826893251678192e+00
         - 4.1722841111247702e+00
         - -2.3831495239492542e+00
         - 2.7062503068887636e+00
         - 1.6996208999593456e+00
         - -1.1232360356247396e+01
         - 2.4569863605516118e+00
         - -2.2274140946251157e+00
         - -1.5279854803092041e+00
         - -1.9042569278852055e+00
         - 1.1071522863746486e+00
         - 2.5141482044204260e+00
         - -4.3974609967887028e+00
         - -8.6115604745457308e-01
         - 1.6515851197795360e+01
         - 4.0352252480974551e+00
         - -1.5246422607725858e+01
         - 4.5224607354745485e+00
         - 2.9630283277965430e-01
         - -9.0994984999192197e-01
         - -2.0061992979916923e+00
         - -5.1498833126683796e-01
         - -1.7056256611495904e+00
         - -1.1777848557408834e+01
         - -1.0056394012592513e+00
         - 7.1997241177508045e+00
         - 2.1019426030969401e+00
         - 3.2741841322921967e+00
         - 1.2816136752103520e+00
         - -6.0011080433066812e+00
         - 3.8087368116332976e+00
         - -8.2457342133704383e+00
         - -7.1167532792291011e-01
         - -2.4863178610856065e+00
         - 3.3037429590725793e+00
         - 6.7577220555458313e+00
         - -2.2630375814836965e+00
         - 8.1270787289166235e-01
         - -2.1529132747548521e+00
         - 2.0522952282305460e+00
         - 1.5869494837060272e+00
         - -5.1458392352271516e-02
         - -6.7477448885749094e-02
         - -5.1014680195374862e-01
         - 2.1095576173886874e+00
         - -1.5732230340511155e+00
         - -2.1865640209888899e+00
         - 4.4322587727230217e-01
         - -1.3540287834346356e+00
         - 3.8500017422207171e+00
         - -4.2509539498158828e+00
         - -2.2958621557192432e-01
         - 3.9930030999616553e+00
         - 2.1647023216971095e+00
         - 1.4868846646158678e+00
         - 1.5478173357657106e+01
         - 1.4850990039101080e+00
         - 5.6873803987456002e+00
         - -2.0442732180785610e+00
         - -9.7560626169287468e-01
         - 1.8851892312395204e+00
         - -1.3155552812797051e+00
         - -9.6832519220012692e-01
         - 4.9276267343545216e-01
         - 1.3626160464942147e+00
         - -3.7933214302515988e-01
         - 2.1271714097700718e+00
         - 1.0283563063816819e+00
         - 2.8205207231502305e+00
         - -6.2710298740425001e+00
         - -9.4535036386083915e-01
         - 2.0305931500870069e+00
         - -7.5527190471649186e-01
         - -7.1738240577255652e-01
         - -6.5438999905418180e+00
         - 5.0103839192051181e-01
         - -3.8506201727172176e+00
         - -1.0212407078531722e+00
         - 7.7251861222760554e-01
         - 4.2873176139780291e+00
         - 3.6284079106420188e+00
         - 1.0919700059848558e+00
         - -2.5909380616257374e+00
         - 3.3505695303787850e+00
         - 2.7903510726484133e+00
         - -6.2755310372231401e+00
         - -1.8584078887645761e+00
         - -2.0449064069520559e-01
         - 9.3368580443568328e-01
         - -2.3200046298517889e-02
         - 6.6875101942500714e-01
         - -3.7071761072119047e-01
         - -1.2480253498548721e+00
         - -1.7325809632423357e+00
         - 8.2295286764397224e-01
         - 1.7901476183121716e+00
         - -2.5677376447382509e+00
         - 7.6943210883864599e-01
         - 1.7636149950707842e+00
         - -1.0668370437625432e+00
         - -1.6658787264393811e+00
         - 6.8982539772713745e+00
         - 3.5842905504241579e-01
         - 9.6710631807127245e-01
         - -3.2395903258809222e-01
         - 4.8364136697239140e+00
         - 1.1874554379452706e+00
         - -1.0026402910336016e+00
         - 5.0806234109928035e+00
         - -6.8931623705387626e+00
         - 2.7505372654083993e+00
         - -6.3071467021034797e+00
         - -5.1949321880516592e+00
         - 9.6010810732405705e-01
         - -2.2948346686026566e+00
         - 5.6471540662091035e+00
         - -2.2625033432396244e+00
         - 1.0416518294101187e+00
         - 1.0409232165943354e+00
         - -4.0318740589120310e+00
         - -4.8373767926288052e+00
         - -9.1582453860702950e-01
         - 2.6722599329464871e+00
         - -9.4765231305702946e-01
         - 4.4332829565910794e+00
         - -2.0386721585565160e-01
         - 2.0949275218068903e+00
         - 1.0629632765371011e+00
         - 5.5489417889303429e-02
         - -9.2576990734730131e+00
         - 8.8747955233070308e-01
         - -1.5024773262009592e+00
         - 1.6619152605881062e+00
         - 4.5500361564586438e+00
         - -6.7986261482304622e-01
         - 6.6619895279544199e+00
         - -5.8764690265372332e-01
         - 4.1645794546800605e+00
         - -2.1105499516026440e+00
         - 2.0972520127982977e-01
         - -2.3707749879211343e-01
         - -2.7840997024675873e-01
         - -1.3341726319973797e+00
         - -5.3363054097460068e-02
         - -3.5859928900023115e+00
         - 1.0617627954099529e+00
         - 4.0666300023212205e+00
         - -3.9725998331512935e+00
         - -9.7975414020949603e-01
         - 9.2282338599133702e+00
         - 4.4710446930799730e-01
         - 2.0829889247579385e+00
         - -1.7012495888785553e+00
         - 1.2751788606653769e+00
         - -1.6566414718898619e+00
         - -5.4678834574948709e+00
         - -9.1516378219037531e+00
         - -1.7387359592699179e+00
         - -4.3656009528335309e+00
         - -9.0834416827943976e-01
         - 2.8732585665390098e+00
         - -7.7419420857350618e-01
         - 4.9797984725446476e+00
         - 2.9349232339282203e+00
         - 2.2959066509293575e+00
         - 1.0210830283105423e+00
         - -2.0443220468212324e+00
         - 1.2519955275711290e+00
         - 7.1887723291171768e-01
         - -1.5820964442352456e+00
         - 5.4618213064926664e+00
         - -2.9326878055853043e+00
         - -1.3341483325766836e+00
         - 5.2832109579598328e+00
         - 1.6820751239795648e+00
         - 6.3267393993509058e-01
         - -1.0032489520631913e+01
         - 8.0915053633843304e+00
         - -2.5718381235326970e+00
         - -1.5195077088297209e+00
         - 1.8719783392445588e+00
         - -4.1695186402516526e+00
         - 1.9126578278634896e+00
         - -3.3175347678493292e+00
         - -8.1308886147002157e-01
         - 3.2447223415722637e+00
         - 1.3917996320466983e+00
         - 3.4412371417181293e+00
         - 5.4074069105358209e+00
         - -3.3056500027951792e+00
         - 2.2162275654161996e+00
         - -2.3615593961098198e+00
         - 4.2722298061637929e+00
         - 1.2147672511244747e+00
         - 5.7332742371847489e-01
         - 9.9803402543753990e+00
         - 1.6341882860765871e+00
         - 1.2368271214395483e+00
         - -3.2684504655219513e+00
         - -2.3762169575157652e+00
         - 1.0478545728588752e+01
         - -1.2211223832942093e+00
         - -9.9609974990035932e-01
         - -1.2890075896491995e+00
         - -2.2906764733314628e+00
         - -6.5685577809367746e-01
         - -1.1202606485164548e+00
         - 1.7831230090071575e-02
         - -1.2164064525758667e+00
         - 7.9978016473622739e+00
         - 2.5005168542161536e+00
         - -7.8006638432228514e-01
         - 2.1027356975305449e+00
         - 7.5240516607742869e+00
         - 6.9812777887722399e-01
         - 3.4095649280637077e+00
         - 4.6195385352718930e+00
         - -2.7852399284097897e+00
         - 1.3394615614764218e+00
         - 5.4341705286067410e-01
         - -7.5702090257434462e-01
         - 5.0926504777282866e-01
         - -1.2979359909782773e+00
         - 7.9091767900238563e-01
         - 9.3908496898594400e+00
         - 2.1355657798506784e+00
         - 2.9250782066807485e-01
         - 5.8899770559836488e+00
         - 4.7754121266099103e+00
         - 9.9989233229747185e+00
         - 6.8923013741595929e+00
         - -8.0192199114689233e-01
         - -2.5284536034173133e+00
         - 1.4835653557324542e+00
         - -2.0438002701707312e+00
         - -5.2720031016916815e+00
         - 3.0425334317051784e+00
         - 2.0051327726969452e+00
         - -2.8295058234943795e+00
         - 5.4132267700590626e+00
         - 3.5754186678092168e+00
         - 4.3521075453211582e+00
         - 3.0379388626755426e+00
         - 4.3893909374517532e+00
         - 8.0649775507825385e+00
         - -9.5780662984679754e-01
         - -2.5207874005463435e+00
         - -2.6460108616321465e+00
         - -2.2968282404799387e+00
         - 1.4000208142341350e+00
         - -4.5965555201191446e+00
         - 3.8138791227549329e+00
         - -1.7835985948471476e+00
         - 6.2883990751776828e+00
         - -3.2916589482681569e+00
         - -5.6661786075549552e+00
         - -1.5087367889667954e+01
         - 5.4688679817062971e+00
         - -2.8343040387326184e+00
         - -1.2306236686185745e+01
         - -2.4460496730684755e+00
         - 2.4751726239268379e+00
         - 2.0292844759601900e+00
         - -5.7107675012211008e+00
         - -3.1128386167817763e+00
         - 1.0235930526418764e+01
         - 5.8434164776263364e-01
         - 3.0344479851375166e+00
         - 6.5015978507910388e+00
         - 3.7507061205302117e+00
         - 5.9437441021395143e+00
         - -9.3715706409080113e+00
         - 3.5620470156338606e+00
         - 1.1185449198223623e+00
         - -4.9512541552450129e-01
         - 8.6627505719905304e+00
         - -2.4722142774388649e+00
         - 9.0321358119352457e-01
         - -4.1114123924026256e+00
         - 5.7770636625349043e+00
         - 4.7652206225832634e+00
         - 6.6136557089923587e+00
         - 1.5609785455327216e+00
         - -1.8998553506800109e-01
         - -4.6853367900504885e+00
         - -6.0853881233451643e+00
         - -4.3024171846938666e+00
         - 1.4459988233850840e+00
         - -2.3239377299961008e+00
         - -8.5810852668273672e+00
         - -4.1787729880556022e+00
         - -2.2421153752665348e+00
         - 1.0059053963708960e+01
         - 3.9150292611168083e+00
         - 2.1099626456137921e+00
         - 3.8107285994940479e+00
         - 4.7456612168690704e+00
         - -2.6226872332740365e+00
         - -1.0292955105500465e+00
         - -7.3830114473121555e-01
         - -3.0877515972694419e-01
         - -6.1468987382372742e+00
         - -1.3329497382972659e+00
         - 1.4728872659058931e+00
         - -1.7397182249498215e+00
         - 3.1985253353253067e+00
         - 4.6612530072027845e+00
         - -4.4919143976883564e+00
         - 5.5152512907795197e+00
         - -9.8047939547097485e-01
         - -7.1876465600539445e+00
         - -2.3625654138289884e+00
         - -6.5048629773257816e-01
         - 4.0580220239433347e+00
         - -9.2552428276128236e+00
         - 4.0027673283619887e+00
         - -6.4885525707949236e+00
         - 3.6826956132652890e+00
         - 2.2061818744568424e+00
         - -1.8191731873826378e+00
         - 3.0585913134738218e+00
         - -2.2825555362575511e+00
         - -2.5459437852372163e-01
         - 2.8666901431876810e+00
         - -3.8965524190069329e+00
         - 1.6527321591569941e+00
         - -1.0814489728968406e+00
         - 4.2441785634748195e+00
         - -5.5199873292105419e+00
         - -3.8318717847084702e+00
         - -2.9322795608328382e+00
         - 2.7172484805860759e+00
         - -1.5929808737417817e+00
         - -9.7545247595034912e-01
         - 5.7203038104841637e+00
         - -2.5187035423202557e+00
         - -8.7643746300932541e+00
         - 7.1115095765134342e+00
         - -2.2594066380075448e+00
         - -4.0151556617746351e+00
         - 4.3134568397759532e+00
         - -1.1922288117468136e+00
         - -2.6424837851889800e+00
         - -1.1187496852586609e+01
         - 1.3408577379480198e+00
         - 3.6299657453698506e+00
         - 2.2250503537133732e+00
         - 1.4266431578578365e+00
         - 1.1500828307256290e+01
         - -2.2314432279591019e+00
         - 3.6718522759563847e+00
         - -1.0273985228622918e+01
         - -6.2317953397833714e-01
         - 6.2301524161371891e-01
         - -2.5494472731608302e+00
         - 9.1572061381923238e+00
         - 2.1895610226803632e+00
         - -2.9757420569401849e+00
         - -2.7666903483313496e+00
         - -5.4657657473250065e+00
         - -6.4823990254861998e+00
         - 4.6701867726508972e+00
         - -1.7570202276454907e+00
         - 4.3280574593672059e+00
         - 8.5246030208811767e+00
         - -5.2277559617197786e+00
         - -2.9406410593919170e+00
         - -4.7909507977290282e+00
         - -2.8121525832140124e+00
         - 2.6859471827462973e+00
         - -3.4415220837504430e+00
         - 1.7182813274915554e+00
         - 1.4474033156027989e+01
         - -2.6092263126982487e+00
         - 5.2355894768844307e+00
         - 2.3575734472938386e+01
         - 2.4314336941307855e+00
         - 5.6322941588341093e+00
         - -5.5067134141771090e+00
         - 1.8696906840373819e+00
         - -6.8247750188694356e-01
         - -3.4958646803622146e+00
         - -1.8174581505191540e+00
         - -3.2996370155402666e+00
         - 3.6991917305955475e+00
         - -2.8946207048083039e+00
         - -3.5273979739160954e-01
         - 7.3501529731260373e-01
         - 2.1006742916221319e+00
         - 1.8254637540888357e+01
         - 7.8862725862575245e-01
         - -2.1613026495753970e-01
         - 3.4099435902735009e+00
         - 6.1361424950178312e-01
         - -1.4138474262709750e+00
         - -1.4031786202723620e+00
         - -3.5385198742567647e+00
         - 3.2927878669979767e+00
         - -3.1395454798563653e+00
         - 3.3868998443789322e+00
         - -2.3919761486960494e+00
         - 2.5645675837045152e+00
         - 6.3850932403858851e-01
         - 3.3529041326038169e+00
         - -6.2096055047833831e-01
         - 2.5593837271009319e+00
         - 2.4429700482552161e+00
         - -6.7769083513291601e+00
         - -2.3211788678037948e+00
         - -1.6129020242583050e+00
         - -2.4461170169126181e+00
         - 3.3781069304973763e+00
         - -1.0383151999263587e+00
         - 4.0069054088078291e+00
         - -3.4462120002848056e+00
         - -3.2183969787953628e+00
         - -8.0025657730070474e+00
         - 3.5548006023145708e+00
         - 6.2565241930554372e-01
         - 3.2685933350184002e+00
         - 4.0939485802793502e-01
         - 8.0537628547502182e-01
         - 1.2002321738352826e+00
         - -7.5247194727554989e+00
         - 2.5169168604869872e+00
         - 9.4794015153427509e+00
         - -2.4534077363633049e+00
         - 1.0915303055286585e+00
         - 6.5829292217271700e+00
         - 3.2548926365481647e+00
         - 6.0711691664293621e+00
         - -1.1050755104305635e+01
         - 2.9873114367060909e+00
         - 1.5709511710696213e+00
         - 7.4146479410135253e+00
         - 4.3920003585465022e+00
         - -2.5172985427318340e+00
         - 3.8773196414443928e-01
         - -3.1936681410887910e+00
         - 4.6944551075486496e+00
         - 6.9279706314137188e+00
         - 2.4543575706199063e+00
         - -2.7333218565504996e-01
         - 1.5644877983811495e-01
         - -1.1456185255349660e+00
         - -3.7570736975772041e+00
         - -3.8326231192039271e+00
         - -9.7674427047461954e-01
         - 2.2744574367990071e+00
         - -3.2732822066476648e+00
         - -3.4504379122527582e+00
         - -4.8302868262112691e-02
         - 8.6017817389205895e+00
         - 4.8185619586263462e+00
         - 3.7951759965488887e+00
         - 5.8632557421561184e+00
         - 4.2522278948258245e+00
         - -2.5157031569141743e+00
         - -1.3782551143397617e+00
         - 2.2208133327803630e+00
         - 3.6854758169969255e+00
         - -6.2793573044753179e+00
         - -9.5515745562127985e-01
         - 7.9763626690680722e-01
         - -2.5307133491689160e+00
         - 1.6301486688066078e+00
         - -1.2442955786623060e+00
         - 2.9393675048930081e+00
         - 5.7359189938917110e+00
         - 1.0355726894659787e+01
         - 9.4495099128211955e+00
         - -2.4317891989857787e+00
         - -7.1010427812248172e-02
         - 2.3673168610871098e+00
         - -1.3785315442426358e+01
         - 2.4032750946993011e+00
         - -2.6099395605176639e+01
         - -2.5553009661154187e+00
         - -3.9273685376152638e+00
         - 1.5645062020661715e+00
         - 6.1195257129308285e+00
         - -1.6878055721376248e-01
         - -8.8639115602343568e-02
         - 2.7483099292925131e+00
         - -3.5295171058480790e+00
         - -1.7749357502811680e+00
         - -4.2239124413384443e+00
         - 3.1323038137699510e-01
         - -4.5484156602805914e+00
         - -6.3431832819535368e+00
         - 1.2984958817073178e+00
         - 2.7018404773555522e+00
         - -4.0820567183392402e+00
         - -2.2999441686504039e+00
         - 2.5594309526445148e+01
         - 3.4947025489524299e+00
         - -2.1394302116660178e+01
         - 1.4540354273378522e-01
         - 1.0054019340148173e+00
         - -1.7731411732830953e+00
         - 1.7549415531174817e+00
         - 2.8895120482604355e+00
         - -4.1116223560876302e+00
         - 3.0052382660736150e+00
         - 2.1444318975974421e+00
         - -3.7865531235594543e+00
         - -3.6459439184958073e+00
         - 1.2825275773852256e+00
         - -1.1116451081816165e+00
         - 8.3571280779368564e+00
         - -2.4750080272772896e+00
         - -2.4342416590144570e+01
         - 9.3290453034377674e-01
         - 1.6996046565572036e+00
         - -9.5788716934031570e-01
         - 1.5246825237573541e+01
         - 5.5976592765109308e+00
         - -1.4113213350717451e+00
         - 5.1184923383159893e+00
         - 8.5760633136046991e+00
         - -2.8015345103998389e+01
         - -5.2125518291120319e+00
         - 2.2198973921669505e+00
         - 2.4884907517929966e-01
         - -7.0779504159083517e+00
         - 2.9865636612801691e+00
         - 2.0894766027313634e+00
         - 2.4650418686525595e+00
         - 4.2016434029795846e+00
         - -4.8815617010883248e+00
         - 4.3008572410471659e+00
         - -2.1632947805786475e+00
         - 7.2385799604647056e+00
         - 2.7824032397186236e+00
         - 4.7497895772758056e+00
         - 1.6264458948373925e+01
         - 6.1338930093170747e+00
         - 7.6704717563531943e+00
         - -6.5449379387813211e+00
         - -1.3659284515801706e-01
         - 1.8050709382440018e+00
         - -2.9095459219851788e-01
         - -2.2111338684351454e+00
         - 1.3065622614168684e+00
         - -4.6559198778026989e+00
         - 1.0740992503555695e+00
         - -3.1188304753435578e+00
         - -1.3176854981683283e+01
         - -1.0687481976836624e+01
         - 2.2885646846647251e+01
         - 5.7860190073233850e+00
         - -4.7195825632814374e+00
         - -1.2314933739470624e+00
         - -3.3071100094597412e+00
         - 4.8052647768725647e+00
         - 6.0990068742162284e-01
         - -1.0729455005496909e+01
         - 2.1934442192392218e+00
         - -6.0934921672288409e+00
         - 5.3709914894735951e+00
         - -1.6659737081912240e+00
         - 6.1140976737287300e-01
         - -1.5486974595108727e-01
         - 4.7901721323053854e+00
         - 2.3593059677360038e+00
         - -8.9116506288957780e+00
         - -4.6959047278315869e-01
         - -6.8128895269158853e+00
         - -5.2718149421877829e+00
         - -4.3495676133336127e+00
         - 9.1588416639585759e+00
         - 4.3252052358929225e+00
         - -4.1621174187403591e+00
         - 8.7327646602191837e+00
         - 6.3181517044410347e+00
         - 5.8744332210705563e-01
         - -8.1322599231915031e+00
         - 4.2865091858733440e+00
         - 4.9182015602376392e+00
         - -6.1873359835856556e-01
         - 2.4110727187650083e+00
         - 2.0158972440619931e+00
         - -2.7253264580588423e+00
         - -1.0774789930574114e+01
         - 2.4898687202500167e-01
         - 7.4277352025377574e+00
         - -5.6040471686313804e+00
         - -2.4071229951989541e+00
         - 1.0129102194661945e+01
         - 3.7741294437369919e+00
         - 1.3795316383902241e+00
         - -2.1004118172923993e+00
         - -2.0491195267747822e+00
         - 5.6402332724171620e+00
         - 2.6475580274290085e+00
         - 6.4953265870146168e+00
         - -1.7748200959976785e+00
         - 1.5592713850820812e+00
         - -3.7832956275321932e+00
         - 2.8094970718835190e+00
         - 7.4216539197149549e+00
         - 1.2777393762293614e+00
         - 1.5333586784471707e+00
         - 2.6824869846998487e+00
         - 6.2875272251982162e-01
         - -4.9598065427695035e+00
         - 1.3308721285703914e-01
         - 1.0801212063318464e+00
         - -2.3466028531602339e+00
         - -7.0424357745631330e+00
         - -2.7592082850100978e+00
         - -1.5186388518566953e+00
         - 1.6853346232560245e+01
         - 9.7442041914936990e+00
         - 3.5482854478979089e+00
         - 2.5994081516760399e+01
         - -5.4576515922331059e-01
         - 6.3444796121001366e+00
         - -1.0874057700321154e+01
         - 1.3463237588604007e-01
         - -3.0584763667449564e+00
         - -5.1566004408471446e+00
         - 4.4938403575327374e-01
         - 2.0019070877958076e+00
         - -1.3111846212886924e+00
         - 1.2676128014111401e+00
         - 2.3775462895905228e+00
         - -1.0740038432481205e+00
         - 5.2362620114300675e+00
         - 1.2519909824679884e+01
         - -2.3726186466267571e+00
         - -4.6061766754109694e+00
         - -2.7684442453400986e+00
         - 1.6564338299475379e+00
         - -4.0231336217498459e+00
         - 4.5275833630548501e+00
         - -1.8503465229486025e+01
         - -3.3316645328581336e+00
         - 3.4988388786274033e-01
         - 3.2538404123721015e-01
         - 5.4624475429867028e+00
         - -1.2601477554597333e+00
         - -2.1847853922145025e-01
         - 2.9547940643240991e+00
         - -1.5453538686540107e+00
         - -5.8093735747181610e+00
         - 5.3123361444604115e-03
         - -4.5024879644914320e+00
         - -5.3796488538170975e+00
         - -2.8081529197285606e+00
         - 8.0164375614438912e-02
         - 1.3617834002639455e+00
         - 6.1634219345499952e-01
         - -1.0162065100638988e+00
         - -2.6888993812611459e+00
         - 4.2956335625218239e-01
         - -4.7310428040437014e+00
         - -7.4514843934463548e-01
         - 1.5701625961364265e+00
         - -5.2462462274036259e-01
         - -1.4271175629523480e+00
         - 2.6347288140438856e+00
         - -1.9621480672125988e+00
         - -1.0004586939280036e+00
         - 2.4569667475966059e+00
         - -1.6896674375899057e+00
         - -3.0330501534130514e+00
         - -3.3026456942648190e+00
         - 1.7187750619783393e+00
         - 3.4566854792688662e+00
         - -5.5523582979541219e-01
         - -4.7762500779578367e+00
         - -6.8603733767592112e-01
         - 4.1263686292161896e+00
         - -9.6962114652093445e-01
         - 9.0765528854820641e+00
         - -8.4301764522372957e-01
         - 1.0959218228383245e+00
         - 2.7940036345992483e+00
         - 2.3817991338289408e+00
         - 2.5081842066315860e+00
         - 8.5742156617917900e+00
         - 5.8657834692723265e-01
         - 2.7293327567551146e-01
         - 3.8129124391501499e+00
         - 2.9370131913218467e+00
         - -2.1767556382333595e+00
         - 9.0474421290291152e-01
         - 1.7441938132942301e+00
         - 4.5635756061982553e+00
         - 3.8472795589403208e-01
         - -1.2363693886389633e+00
         - 7.5845174366968795e+00
         - 1.3732069969179408e+01
         - 2.8218761664372660e-02
         - 2.6605194654141521e+01
         - -2.8491383196593345e-01
         - 1.3012501223384108e+00
         - -3.9155756760458615e+00
         - 1.6038661294792704e+00
         - -1.2076096276812325e+00
         - -4.8576861058543583e+00
         - -1.0470864656820851e+00
         - 2.0955421146052458e+00
         - 9.0797925483159825e-01
         - 2.9344885817084663e+00
         - 1.4602964577041493e+00
         - -2.4329605830734744e+00
         - 1.9417662190161700e+00
         - 1.2088266737445796e+01
         - 1.0692345770905911e+01
         - 1.2713848172917483e-01
         - -3.6120954670594032e+00
         - 4.8296457204112606e+00
         - -4.9672397328728044e+00
         - 1.6646483596813290e+01
         - -8.8147924387319083e+00
         - -3.5223649076478867e+00
         - -9.4169352355240132e+00
         - -4.5397792996192363e+00
         - 1.5847344032083341e+00
         - -3.0360495409189143e+00
         - 3.9076380755544760e+00
         - 1.7795600097206963e+00
         - -5.3060189005664782e+00
         - 9.2732936952980760e-01
         - 1.4860866660715426e+00
         - -2.1456211065456854e-01
         - -7.5117197564252454e+00
         - -6.9290936550691598e+00
         - -7.1694690946463491e-01
         - 3.5717070784445304e+00
         - -3.8432167242606043e+00
         - 8.1296317562137510e+00
         - 1.2036818314427569e+00
         - 9.6779211237164786e-01
         - -1.8488210194315577e+01
         - 1.2952032579818257e+01
         - 4.5573011193970958e-01
         - 7.5538292445384125e-01
         - 4.7413724742641667e+00
         - 3.9738871384184167e+00
         - -1.4553484521910813e+00
         - 8.8768917848543030e+00
         - -5.1124598697556756e-01
         - 1.2084192794537058e+01
         - -2.1107399089298999e+00
         - 8.6387171200638253e+00
         - 9.0217432745564228e+00
         - 7.4089243211090727e-02
         - -2.9729427108844431e+00
         - -3.5123576344377523e+00
         - 9.6965533655536795e+00
         - 2.5542578466855055e+00
         - 8.1618367816240978e-01
         - 2.3472250019443077e+00
         - 1.6289900477391925e+00
         - 2.5348922290316138e+00
         - -6.1308888349167895e-02
         - 5.9648142095280017e+00
         - 7.6486031693546230e-01
         - -3.8989869511083910e+00
         - 1.6994023354061869e+00
         - 9.6874083721754034e-01
         - -4.2880672464676666e+00
         - 3.2547526004401850e+00
         - 5.1981749954953482e-01
         - -2.2576196732790962e-01
         - -5.7997199323701051e-02
         - 3.9955892173448766e+00
         - 1.4043000509543355e+00
         - -1.4231215042693379e+00
         - -4.3181569078397350e+00
         - 1.9610720596736407e+01
         - 1.9394226737541174e+00
         - -1.5261209224557495e+01
         - 1.1318203616559252e+01
         - -7.6486342707018169e+00
         - -8.1574776886125360e+00
         - -1.2288276184140172e-01
         - -3.6088654648680829e+00
         - -1.0758409601471813e+01
         - -2.2034294851933494e+00
         - 1.9814056921655903e+00
         - -7.6131390763586060e-01
         - 1.3303015739748474e+00
         - 1.6292142892814412e+00
         - 1.1271791314437822e+01
         - 1.3203930762149817e+01
         - 7.2509517162637680e+00
         - 5.7959016635893761e+00
         - -1.1751349570493748e+01
         - 2.0049163844976663e+00
         - -2.2080605278871155e+00
         - -8.4785235073278020e+00
         - 5.7253213899316373e+00
         - -1.8150412811101319e+01
         - 1.8142210693496064e+00
         - -1.5989895246512409e+01
         - 1.4082626591708349e+00
         - 1.8032922322343796e+00
         - 5.1824705020065425e+00
         - -2.2330586836086326e+00
         - 3.7325818243276401e+00
         - 6.6686756817095834e+00
         - -1.4955186999931781e+01
         - 5.6244033641950271e+00
         - -7.9569997638332026e+00
         - -2.6850597096416133e+00
         - -9.3523300746171216e+00
         - -1.9369941428270221e+00
         - 2.0653699834988095e+00
         - -1.9008540349735463e+00
         - -1.5039635447930214e+01
         - -3.1078875855631303e+01
         - 5.4280115369236936e+00
         - -1.9240772976871966e+01
         - 1.6111659055576403e+01
         - 2.5959589757092222e-01
         - 1.7010090585396802e+00
         - -4.8920424070272039e+00
         - 1.6990052343448920e+00
         - 1.6384226687543859e+00
         - -2.8119203466428413e+00
         - 6.9195237969543755e-01
         - 5.2768073954725132e+00
         - 1.4708167434810280e+00
         - -2.6089067781176429e+00
         - 1.1497809059106407e+00
         - 1.5473102103563516e+00
         - 1.7058446573940447e+00
         - 2.6972740505672603e+00
         - 5.9642300137323252e+00
         - -2.9611472355546211e+00
         - 3.1669819509147166e+00
         - 9.2003825709966680e+00
         - -4.5170266154486578e+00
         - -2.7010960158454624e+00
         - -2.3755137898483816e+00
         - -1.3701659099198684e+01
         - -3.5277768745252174e+00
         - 8.7884834055189138e+00
         - 1.5891640788590837e+00
         - -2.8464478494939134e+00
         - -9.2751633101486974e-01
         - 3.9575498048033231e-01
         - -9.7205876107605493e-01
         - -6.1879420292793386e+00
         - 5.6932896170235492e-01
         - -1.0342364085107992e+01
         - 3.3301376729228793e+00
         - 2.1832911880072934e+00
         - 4.5749627975135141e+00
         - -9.4264678225596334e+00
         - 2.5391727048348387e+00
         - 8.0922201182096192e+00
         - 8.5785351434455634e+00
         - -1.1753023406639924e+00
         - 8.5269242600106224e-03
         - -8.5451574574309908e-01
         - -9.4131523410285318e+00
         - -4.5493849595247911e+00
         - -3.5634085594315212e-01
         - -4.5836109090167696e+00
         - -2.1386995855526885e+00
         - -1.2993762094942063e+00
         - 6.1081789646465641e+00
         - 8.9219094059810473e+00
         - 7.0852209733018494e+00
         - -4.7247585697089320e+00
         - -6.9005304795712554e+00
         - -7.4356650832137883e-01
         - -3.4489958559024245e+00
         - -9.5853088184931123e-01
         - -8.2631575582787633e+00
         - 1.7692670498792396e+01
         - -3.2189711322519074e+01
         - -4.0165217608527835e+00
         - -1.3057633626889467e+00
         - -4.9149040202701488e-01
         - 2.0042241496057915e+00
         - -1.2647940892065770e+00
         - -1.4028325979894756e+01
         - -2.1340755913059997e-01
         - -7.4179556191395015e+00
         - 1.7321450603988808e+00
         - -2.7688008454814148e+00
         - 4.5613800856982252e+00
         - -4.9740080725866420e+00
         - 4.3887484786316708e+00
         - -5.1875300667741149e+00
         - -5.2066030348630987e-01
         - -7.4264872281313306e+00
         - -5.7591862226238426e+00
         - 4.7654196743212021e+00
         - 1.1304797443976298e+01
         - 9.5565999024407962e+00
         - 1.5126393755102889e+01
         - 5.7861228177258637e+00
         - -1.1387308266947786e+01
         - -1.3648664463938527e+01
         - 4.1902217653825771e+00
         - 4.7633666565541199e+00
         - 2.7837898865371171e+00
         - 4.8136649859838379e+00
         - 4.8163802426468543e+00
         - -3.9136232517347738e+00
         - -1.5850871213999176e-01
         - 1.6662782771865444e+01
         - 1.3586544137677304e+01
         - -4.2463060710349527e+00
         - -1.3511051233877188e+01
         - 8.2428170033476551e+00
         - 3.5932711269115223e+00
         - 3.9540606071452711e+00
         - -2.7465187660642538e+00
         - -2.6550976511335236e+00
         - -2.3617498712889420e+00
         - 6.2490224899160065e+00
         - 4.5594301136135194e+00
         - -5.4104110851811384e+01
         - -2.4428087010794384e+00
         - 5.7136863554307409e+00
         - 2.6428705513705681e+00
         - 1.2694942957989966e+01
         - 1.7112231477927211e+00
         - 3.0165423181286557e+00
         - -3.0551431265938804e+00
         - 6.5361948866749637e+00
         - -1.6891985817650131e+01
         - 4.4781094327063258e+00
         - -3.9980775418885175e+00
         - -4.1460465958577691e-01
         - 6.8194296146432372e+00
         - -3.4530347425094837e-02
         - -3.7970541717692146e+00
         - 5.9817232049188478e+00
         - 8.1087094747130521e+00
         - -2.1416871949712665e+01
         - -1.3598352387421935e+00
         - 8.1898593976551304e+00
         - 4.0005330845683611e+00
         - -3.2246633257654542e+00
         - -1.7445189052036844e-01
         - 2.3410122150723485e+00
         - 6.5493880910879607e+00
         - 4.2010244491459625e+00
         - -1.3308059068284493e+01
         - -1.1166175580102328e+01
         - 5.1144728576125131e-01
         - -1.8169073442930967e+00
         - -4.4487377318158510e+00
         - -1.3696767553272995e-01
         - -3.9391524274103489e+00
         - -1.3540576383707950e+01
         - 1.1354474144180280e+00
         - -1.4222381532503078e+01
         - -2.3582102785331136e+00
         - -5.6903170230709288e-01
         - 9.9800502468093963e+00
         - 4.6255546683889177e+00
         - 2.3966036142958824e+00
         - -1.1690424663718841e+00
         - -8.0836314868755661e+00
         - -2.3763064465205463e+00
         - -3.0673565267749821e+00
         - -3.9434221549283408e+00
         - 4.9799087627447441e-01
         - 5.7882354566912775e-01
         - -2.1082926284779218e+00
         - -8.0720836778964644e-01
         - -1.7374849622972274e+01
         - -1.1837395421550148e+00
         - 2.1526901907999189e+01
         - 2.1430658520593355e+00
         - 1.7897479780448891e+00
         - 4.6034927067109708e+00
         - -1.1349393764127505e+01
         - 1.8054227027231859e+00
         - -6.4844108287370137e+00
         - -1.0383058173611404e+00
         - 2.4410079335231751e+00
         - 2.5718560288551844e+00
         - 1.7951191107604757e+01
         - -1.0012069899187366e+00
         - 1.4055570959083662e+01
         - -3.8724615218339573e+00
         - 3.5384379608250258e+00
         - -1.9410397991501990e-01
         - -6.2777683982157333e+00
         - -4.9618815965505503e+00
         - 1.3561001591021849e+01
         - 1.2488698658431296e+01
         - 2.4377343364519017e+00
         - -7.6082070517755183e+00
         - 1.7740197643781968e+01
         - 3.0208441909569186e+00
         - 1.0958123802046156e+00
         - 2.5301525550027915e+00
         - -1.3485123802428897e-01
         - -4.7301123640699327e-02
         - 5.9953691065040671e+00
         - 1.1612608637503210e+00
         - -1.1043959797437883e+00
         - 8.6872153112450210e+00
         - 5.7374519899352494e+00
         - 2.6640337057624688e+00
         - 4.5942811045803017e-01
         - 1.7941203892907673e+00
         - -1.2514210404021480e+01
         - 8.8026825131730746e+00
         - -2.5951474310089773e-01
         - -1.4333321903700536e+01
         - 1.1963361476473867e+01
         - -1.3805683662135533e+00
         - -2.5084276885277901e+00
         - 2.5857784061874809e+00
         - 1.5451598983376723e+01
         - -2.1597515856720904e+00
         - -1.8187825067747996e+00
         - -1.1268599313890780e+01
         - -2.1220403562983416e+00
         - -1.7928778955283196e+00
         - 4.5379429088766424e-02
         - -2.9621460127075845e+00
         - 2.7088865767302361e+00
         - -2.4128299808405078e+00
         - -3.2843076529482342e+00
         - 4.6270538444713138e-01
         - 1.0196613604372637e+01
         - 1.4350539200772645e+00
         - -1.4187564011709735e+00
         - 4.3210001742794129e+00
         - -1.8716023851381203e+00
         - -9.1124841876252436e+00
         - -2.2114965579441681e+00
         - -1.2806968784324010e+01
         - 2.9840935033125171e+00
         - -9.3375077843044636e+00
         - -4.5154634121059178e-01
         - -4.8818280464958406e+00
         - 1.0778205670243781e-02
         - -2.6716315806968525e+00
         - -3.4138468153892063e+00
         - 3.3489188166272115e+00
         - 1.9635559901939577e+00
         - 3.5988564916371395e+00
         - -1.8802211810785185e+00
         - 3.4083245232090897e-01
         - -5.6282380010215949e+00
         - 2.0365202750838143e+00
         - 8.3301369971745842e+00
         - -2.3974115493592856e+00
         - 2.2729358189202586e+01
         - -3.0886971348285859e+00
         - 3.8684967246148103e+00
         - 3.5295005369169199e+00
         - 8.3265909768226418e+00
         - -5.8509378897611919e-01
         - -1.2361595318002705e+01
         - -4.0815697470574763e+00
         - -4.3263313480899068e+00
         - -3.2513453875592875e+00
         - -3.3814336549179522e+00
         - 2.6490446484965235e+00
         - 1.9636739797317173e+01
         - -9.7818182997296932e-01
         - 9.0833822435281650e+00
         - 9.7922584724564810e-01
         - -3.5660353356915442e-01
         - 1.2418483476599047e+00
         - -9.7405456239186368e+00
         - 2.1758364960948409e+01
         - -1.2992470037556390e+00
         - 7.5170309210388391e+00
         - -6.9678359849195137e-01
         - -5.2546387756479636e+00
         - -3.1735350619454730e+00
         - -3.8457204133022804e+00
         - -2.0707711393487332e-01
         - 9.7149020766986940e+00
         - 4.9396227102200223e+00
         - 1.7006364630570949e+00
         - -3.6695117777196167e+00
         - -7.1841924868029761e+00
         - -2.4052403270731686e+00
         - -2.6291902934593434e+00
         - -1.1905865693443621e-01
         - -3.5215347957202447e+00
         - 6.0915714488924291e+00
         - -3.5237610839281768e+00
         - 6.1167889972427405e+00
         - 2.4696894560651219e+00
         - -9.6495256087783687e+00
         - 4.3104273162728592e+00
         - -1.1629676223080784e+01
         - 7.5652514618775344e+00
         - 1.0941426151591884e+01
         - 8.2189985653593265e+00
         - 2.9844112243867409e+00
         - -6.4572355120332237e-01
         - 2.3233467421095537e+00
         - 4.5819019195051522e+00
         - 1.9003408622840241e+00
         - 3.6729158463995484e+00
         - -2.3805391452035018e+00
         - -5.2375137182610496e+00
         - -1.2600646811620930e+00
         - 6.0661069151534805e+00
         - -4.5407353472587646e+00
         - -2.9622529313222286e+00
         - 6.3772963945067200e+00
         - -4.7223335572087177e-01
         - -3.5177211341095749e+00
         - 1.1530132396965509e+01
         - 1.5321485236894073e+01
         - -5.1227128579803420e+01
         - 1.3580399223719006e+00
         - 5.2277382187383985e+00
         - 5.0129305336665073e+00
         - 2.6392200970260631e+00
         - 6.2509926930344184e+00
         - -5.2805913835205178e+00
         - -5.0470581017940512e+00
         - -2.7048205611045870e+00
         - -6.4763280816806956e+00
         - -6.4708525176692113e+00
         - 9.9738466168977151e+00
         - 1.7384577557407468e+00
         - -6.7493858594719214e+00
         - 3.6701122980271297e+00
         - 7.7432963214424957e+00
         - -1.5821451272911147e+00
         - -9.1527766310769305e+00
         - 1.5842653015751178e+01
         - -5.0803501908742188e+00
         - 9.2259401903219054e+00
         - 5.1198662799585772e+00
         - -4.5059939838256742e-02
         - 3.6243242334138781e+00
         - 4.3132573710977953e+00
         - 3.4122858722570237e+00
         - -1.6485515784238649e+00
         - 2.7342041524688803e+01
         - 1.8237948343500119e+00
         - -1.5080313181810151e+01
         - -3.1923613237431403e+00
         - 6.5562974088767980e+00
         - 1.3620311275223848e+01
         - 3.0712716975642009e+00
         - -2.5449994596845800e+00
         - -4.6721057239578272e+00
         - 2.6278937368645220e+01
         - 1.9069509850471191e+00
         - 3.3214703051480896e+00
         - 7.1831481263822026e+00
         - 4.0112712377166098e+00
         - 3.4565937316859523e-02
         - 3.7279606744925711e+00
         - 2.5084283608347402e+00
         - -1.1849177355040533e+01
         - -4.8027329519196922e+00
         - 3.5148351079044637e+00
         - 2.6315194980613805e+00
         - -2.3722135736273486e+00
         - 4.1522959837142555e+00
         - 2.5574422582577832e+00
         - -6.3224591866552871e-01
         - 1.6976070578398419e+00
         - -2.9159951970080291e+00
         - 1.0543514858138527e+01
         - 2.9720523623216993e-01
         - -3.3301670630054017e+00
         - -1.1479266365969551e+01
         - -1.0828330272276747e+00
         - -5.0451968571781813e-01
         - 1.1025848384030239e+00
         - 6.8404721782949585e+00
         - 4.1988661033373882e+00
         - -4.2732976473916073e+00
         - -9.5345804420885170e+00
         - 2.1579434518983480e+00
         - 1.5228516594226029e+00
         - -2.7521615880918238e+00
         - -1.0155679120001939e+00
         - 1.2527224906865380e+00
         - 9.0051092474562804e+00
         - -3.7103949615387427e-01
         - 3.7557202757459187e+00
         - 1.2766096828838362e+00
         - 1.2673729967351175e+01
         - -5.1346820666152091e+00
         - -5.7966564352077450e+00
         - 1.3437519229496611e-01
         - 1.6997823467608220e+00
         - 2.9934322158863857e+01
         - 1.3205888412144651e+01
         - -2.9247204859479958e+00
         - 4.6970989381304268e-01
         - -1.3844146660885477e+00
         - 8.1109312136840845e+00
         - 6.2359523381004012e+00
         - 1.9837009030665520e+00
         - -2.6315994107189145e-01
         - 1.0175412311957903e+00
         - -5.0846404677696295e+00
         - -1.1389760588287942e+01
         - 2.7837500004850928e+00
         - 5.9609174609838496e+00
         - -5.4106652861406044e+00
         - 6.3774143406290111e+00
         - -1.8441735250832352e+01
         - -7.6113530089471810e+00
         - -7.8736565748850929e+00
         - 2.1380530274098785e+01
         - -1.4389350685982256e+00
         - 1.4820967062261550e+01
         - 9.3103205563186027e+00
         - 1.4756294837587500e+00
         - 3.0998230397017835e+01
         - -3.1299774265309752e+00
         - 3.2813051489713079e+00
         - 4.2543263786628227e-01
         - 1.7499995772555874e+01
         - 3.3221621404540130e-01
         - -1.0420992513885039e+01
         - -3.1700164074050616e+00
         - -2.5050805413779109e+00
         - 9.6529702637268677e+00
         - -1.1830167245311705e+00
         - -5.0397590663272354e+00
         - -1.4894009811230383e+01
         - 2.8935609889119821e+01
         - -3.6988400542272948e+00
         - -8.3214773809103750e+00
         - 1.8829552752368738e+01
         - -1.2317782031061417e+00
         - 3.9118790690643562e-01
         - 6.6754061522741575e+00
         - -3.6155393402455802e+00
         - -2.2523941305275066e+01
         - 1.2402065691658175e+00
         - 1.7387878399492012e+00
         - 1.3157136802933178e+00
         - 8.2026518064126002e+00
         - 5.6787905089808648e+00
         - 2.2676088587637895e+00
         - -5.8027263560255382e-01
         - 4.0636535891897196e+00
         - -7.7651876780160736e+00
         - 1.8269599054123979e+01
         - -4.8022571456418781e+00
         - -1.1122058684799235e+01
         - 2.9096132735346090e+00
         - -3.9553905618109604e+00
         - -1.5763038803518613e+01
         - 3.3377326399505475e-01
         - 1.2149997339211682e+00
         - 3.8635198494792293e+00
         - -4.7674126714089811e+00
         - 6.3064424846437834e+00
         - 9.7893224154769887e-01
         - -3.2641391243080027e+00
         - 6.3347916864395282e-01
         - -6.1232133456323599e+00
         - 2.8412565792290541e+00
         - 2.6741059707583363e+00
         - -2.3182580594735938e+00
         - 1.7010704752277770e+00
         - 4.8602758239149374e-01
         - 1.8779702884141042e+01
         - 1.6676451758732583e+01
         - 2.0006245813414067e+00
         - -2.2704199548654200e+00
         - -5.3165820545038722e-01
         - 3.3691972124243186e+01
         - -1.3876456305688070e-01
         - 1.6569338127918196e+00
         - 9.2156901920638801e-01
         - 5.3874561719172620e+00
         - -2.9335947036734096e+00
         - 3.3844153674299915e+00
         - -1.3497533057029070e+00
         - 3.2938737972873766e+00
         - 8.5221201893732843e+00
         - -3.7720708134318572e+00
         - 1.1545912571306580e+00
         - -9.0009548559690113e+00
         - 7.0249270320296429e+00
         - -8.8520954511425227e+00
         - -1.3775054018120696e+00
         - 1.0634152849243822e+01
         - -2.5071755746483468e+00
         - 9.4018796094627284e+00
         - -1.0797651532797076e+01
         - -4.6584268391439805e+00
         - 3.7102050494018548e+00
         - -5.8494616485310154e+00
         - 1.2353886930483504e+00
         - -1.4964253912261997e+01
         - -2.3831494091853740e+00
         - 1.2003312220131679e+00
         - -3.0694612503109524e+00
         - -5.9338316431600235e+00
         - -5.2456140018161284e+00
         - 1.6628369038192183e+01
         - 6.8142690130708239e-01
         - 7.1393993698741385e+00
         - 1.2506832871160233e+01
         - 2.8436060269019832e+00
         - -1.2305250967633088e-01
         - -3.5433605765071761e+00
         - -1.1778713159260974e+00
         - -4.1531810348694167e+00
         - -2.3927978212961900e+00
         - 9.7647700561225665e+00
         - -2.9403592983694815e+00
         - -2.3049431878890823e+00
         - 1.4884656049996277e+00
         - 1.2428404601006404e+00
         - -1.5631360231304432e+01
         - -1.9318324481436738e-01
         - -5.7122606993300873e-01
         - -1.5794488176667643e+00
         - -1.5471889198999186e+01
         - 2.9233135066881299e+00
         - 1.8780255076195280e+00
         - -1.2300915008968074e+00
         - -5.6707930124731609e-01
         - -1.3052044517557674e+01
         - -9.9300447850536262e+00
         - 4.0540630938474393e+00
         - -2.9172621097346596e+00
         - -2.5529714390237979e-01
         - -4.0949490389471821e+00
         - -1.2348890037623455e+01
         - 5.9309150708715217e+00
         - -2.6029154806673183e+01
         - 5.4663202429752964e+00
         - -1.8636107607909985e-01
         - 6.9190505993488491e+00
         - -5.7551619968162382e-01
         - -2.6906857127730497e+00
         - 1.1748811390952030e+00
         - 1.7977101744295836e+00
         - -7.6267322137938720e+00
         - 9.0662714805581270e+00
         - 5.5396894522062556e+00
         - 1.1238099608992698e+01
         - -1.7629829592163507e+01
         - 6.4992081763703977e+00
         - 2.5281149869034829e+00
         - -1.9373433473532409e+00
         - 1.2443286768017066e+00
         - -5.7298125764184240e+00
         - 2.0928223034076787e+01
         - -6.6431780587736569e+00
         - -2.4908898810426070e+00
         - 5.4421583344573410e+00
         - -2.5795150685934729e+00
         - 3.7384561569614143e+00
         - 1.4506724215814131e+00
         - 5.8003268625701647e+00
         - -3.1718749914784010e+00
         - 1.3238690449344239e+00
         - -6.2194279538367025e-01
         - -4.5920528673252958e+00
         - 9.8735752777214925e-01
         - -4.8231750924889454e+00
         - -3.5878176314281189e+00
         - -1.0721407666711456e+00
         - -3.6982341543148761e-01
         - -1.6314703261177688e+00
         - 2.4094148772071713e+00
         - 2.5533848166025713e+01
         - 2.5468466068084017e-01
         - 6.1706616312106659e+00
         - -6.9846217401393398e+00
         - -5.6981160076224791e-01
         - 8.4124254357823354e+00
         - 2.9635027737981003e+00
         - 1.9614228951430164e+00
         - 1.1790902949300495e+00
         - 2.8431394820760289e+01
         - -9.7542630733495839e-01
         - 1.9121969446673091e+01
         - -2.7140150445519322e+00
         - -8.5429174764964433e+00
         - -8.0641078626604568e+00
         - -5.2129640636174628e+00
         - -9.8590794386597724e-01
         - 9.8881008073813792e+00
         - -8.8436885816430753e+00
         - -3.0660703470434765e+00
         - -3.9782374008609858e+00
         - 8.1740122065335861e+00
         - -5.5719261246011920e+00
         - 8.2639249289010197e-01
         - 3.0315805396014621e+00
         - -1.8319555196236128e+00
         - -8.1378931846091689e+00
         - -6.4952738779201100e+00
         - 3.2521853768665082e-01
         - -8.5319635524794102e-01
         - 4.4967203836895715e+00
         - 3.1162641025261602e+00
         - 2.2026301745731875e+00
         - 1.5027424721764810e+00
         - 1.1960060934716812e+00
         - -9.1034510180932529e+00
         - 7.4560532960412127e+00
         - -1.9190580097512262e+00
         - -2.5075529312372735e+00
         - 1.6614083207504070e+01
         - -1.8247809950160556e+00
         - 6.7947047389779325e+00
         - -1.5485032656218629e+00
         - -6.4678165184766767e+00
         - -1.8457647797652648e+01
         - -1.3117882651222963e+00
         - 1.6546174623649856e+00
         - 2.8794987062766966e+00
         - -1.0902451582492152e+00
         - -8.2496354892772308e-02
         - -2.8529651840398795e+00
         - -1.1221736715028703e+00
         - -3.5392075930460642e-01
         - 5.0904441636111271e+00
         - -8.7130088207443794e+00
         - 9.7971997786149725e+00
         - -6.2974343041367709e+00
         - 1.1923984221852872e+00
         - 5.2010727948110773e+00
         - -3.1106235546086936e+00
         - -1.4055948427967877e+01
         - 6.4600701070236797e+00
         - 6.5611057223825737e+00
         - -3.7580274293916966e+00
         - -3.8119608361560964e+00
         - 6.8153412695871873e+00
         - 6.1281971733864919e+00
         - 3.2297321700142105e+00
         - -1.5008732454501585e+00
         - -3.1240009430550986e+00
         - 1.0208498148449461e-02
         - 1.3661820984780377e+01
         - -2.3947779572185195e+00
         - -1.2825314064284951e+01
         - 1.7126112785095368e-01
         - -2.8562786214171352e+00
         - -5.3639478345686271e+00
         - 5.6136500267941107e+00
         - -2.6140821411697730e+00
         - 7.0169642441241686e+00
         - 9.4455285944892822e+00
         - 1.1928049670607281e+00
         - 4.2292579785791515e+00
         - 3.2655590981254319e+00
         - -2.6614762399029566e+00
         - 4.8325064095198673e+00
         - -2.2302695540733808e+00
         - 2.3135469890544051e+00
         - 3.3700189765412453e-01
         - 1.5283681510240770e+01
         - 2.7953567822005030e+00
         - 1.1206912296173376e+01
         - -1.8547893545718874e+00
         - 5.5667417180725884e+00
         - 8.5492670093348071e+00
         - 3.7130227805869565e+00
         - -2.4958942990757307e+00
         - -4.5448107068834025e+00
         - 4.3031168589158737e+00
         - -1.1792811395536509e+01
         - -4.6087155152611174e+00
         - 1.3102990693787737e+01
         - -2.4636692849872115e+00
         - 1.2488369001797293e+00
         - 2.9876477422379977e+00
         - 7.1614179462236240e+00
         - 2.8206682242107837e+00
         - -6.5462933943714745e+00
         - 8.7022903490998837e-01
         - 8.7844888874810345e-01
         - -5.7290456618281986e+00
         - 5.0910822214563636e+00
         - 4.4355739761253430e+00
         - 1.5939682529286090e+00
         - 3.3376984327306891e+00
         - -2.1463118085573556e+00
         - 3.5864555804525748e+00
         - -1.5559851363908146e+00
         - -1.9388833726625623e+00
         - -5.7148353897819648e+00
         - -1.2877572396761201e+00
         - -4.3850352083018773e+00
         - 3.3402502450991407e+00
         - -2.1085896824494597e+01
         - -1.9617147164166710e+01
         - 4.6081331444786855e+00
         - 6.2341335969312119e+00
         - -5.0299529908955147e+00
         - -1.4587513489982848e+00
         - 1.3933950938115971e+00
         - -3.1173882891235234e+00
         - 5.2956754523553409e+00
         - 1.4703722513956075e+01
         - 1.3861875887915879e+01
         - -1.4083273618796998e+01
         - -6.4166040321837654e+00
         - 3.3645812389078564e+00
         - -4.3664049091309476e+00
         - -1.7103425588807626e+00
         - -6.0023859189438211e-01
         - 8.3523357877738977e+00
         - 6.8563525535298684e+00
         - 7.2314775663887270e+00
         - 1.9834934325634055e+00
         - -6.1979792679529364e+00
         - -1.5965235681662410e+01
         - 6.6465231064197203e+00
         - 2.3556039875358232e+00
         - -6.8606029414199448e+00
         - 3.9304053166161954e+00
         - -2.7315141911194535e-01
         - 3.1037339741972114e+00
         - 5.8446944658477529e+00
         - -7.0191816929377460e+00
         - 1.9362958199867306e+00
         - 1.9654066003716535e+00
         - -2.8461259011299296e+00
         - 1.4149029299429964e+01
         - -2.9008760303060415e+00
         - 6.0221230751610477e+00
         - -1.8885683135120697e+01
         - 1.9830581967657346e+00
         - -1.2245093741405672e+01
         - 8.3603217158147327e+00
         - 1.0718921118162952e+00
         - -1.0203172245200172e+01
         - -2.1470036438779427e+00
         - 8.3558272142980428e-01
         - -7.0806876980017801e+00
         - 8.9658779447483905e-01
         - 1.9695077826786409e+00
         - 1.6968338223067811e+01
         - -2.1195853843668986e+00
         - 1.1478200168520234e+01
         - 4.5085231129310888e+00
         - 3.8878330093732409e+00
         - 2.6538638900159253e+00
         - 5.7394862655224959e+00
         - 2.8357079600237927e+00
         - -1.1286432528310376e+01
         - 5.5673943892445421e-01
         - -6.0932769225507588e+00
         - -3.3099786797580717e+00
         - -8.2334423097994602e-01
         - -4.2020559834033726e+00
         - 5.2264917603124728e-01
         - 8.0923022032455609e+00
         - -1.8957667979390647e+00
         - -5.3285963862940688e+00
         - 2.6410336711789539e+00
         - -3.6077489090585657e+00
         - -8.1300210237218167e+00
         - -4.8454370703162351e+00
         - 7.5644134196810742e-01
         - 4.7427089756158027e+00
         - -1.0362284334293705e+01
         - -2.9447299735618455e+00
         - -1.9789334509041583e+00
         - 9.3389448980334091e+00
         - 1.1645576436694716e+01
         - 2.3766923661094754e+00
         - -8.7068403075915217e+00
         - 6.0044071585048577e+00
         - 2.0542990503400166e+01
         - 5.2552516044862907e+00
         - -6.4485530023824589e-01
         - 4.9203223878506837e+00
         - -3.8745987867883409e+00
         - 4.8536472644732688e-03
         - 2.8879033625945278e+00
         - -1.1520426476531602e+00
         - 5.9973350090751838e+00
         - -5.1292453255030299e+00
         - -1.3115551123002642e+00
         - 8.0300008917536960e+00
         - -5.5736483743615572e+00
         - 5.8231514676851468e+00
         - -3.8321312503062033e-01
         - 8.9748815338686256e+00
         - 1.3748084617310483e+00
         - 1.7204174139984894e+00
         - 9.6681110093332565e-02
         - 5.0446667174694175e+00
         - -2.0664884123594485e+00
         - -3.8826973571975798e+00
         - -2.0747237526551219e+00
         - -1.7061920865849209e+00
         - 6.4771313727695219e+00
         - -1.6456242498071447e+00
         - 3.4182627330285840e+00
         - 1.1546863635136448e-01
         - -4.9134932489675718e+00
         - 4.6470677291940090e+00
         - -3.8932149857547227e+00
         - 1.2493706744948549e+00
         - 4.4499649486741664e+00
         - 2.8324213915853051e+00
         - 4.5960913386515623e+00
         - -3.3185088364688244e+00
         - 8.6137926634188418e+00
         - -2.8505565932179962e+01
         - 6.3505147245363673e+00
         - -1.1589220922122131e+01
         - 4.2757633853704942e+00
         - -2.5037355690792600e+00
         - -9.5793953157641756e+00
         - -3.2520602082834835e+00
         - -5.3718985651402329e-01
         - 3.4023512278779742e+00
         - 1.9703640355851013e+00
         - -4.1029664529716126e-01
         - 1.3828347679511625e+01
         - -4.6536627243560708e-01
         - 9.5108612188503141e+00
         - -3.2051809018058317e+00
         - 4.2094712975994772e+00
         - -2.0427028765621706e+00
         - -7.5228596423112766e+00
         - 1.8841124517933052e+00
         - -3.0567014348313131e+00
         - 5.8022511157863663e+00
         - -9.2975312136235786e+00
         - -2.9778955205853692e+00
         - 1.3514432216887626e+00
         - 2.3314722067412186e+00
         - 2.9876683462799059e+00
         - -1.0915903310077828e+01
         - -1.7757143786988652e+00
         - 2.5772475631430480e+00
         - -2.6566108090983254e+00
         - -2.6126736739395504e+00
         - -4.8139470170607757e+00
         - -4.5171478670139331e+00
         - 1.0887754177967945e+00
         - 1.2252862189406879e+00
         - -8.4816116985407461e+00
         - -6.3239789298991245e-01
         - -9.2801187899435467e-01
         - 7.1304886388217872e+00
         - 8.7847729907298486e+00
         - 6.5068904782562331e-01
         - -9.0929509323665692e-01
         - 6.2732283639258819e+00
         - 1.7126006461391682e+01
         - -3.9347163982318474e+00
         - 8.0344111699938681e-01
         - 9.6091711887019962e+00
         - 1.4773485026989535e+00
         - -5.2436246087225613e-01
         - 1.2339203971562702e+00
         - 2.4747483297493571e+00
         - 6.1733218632921041e+00
         - 3.8180127912027153e+00
         - -1.1962803891798123e+01
         - 2.0712619261026659e+00
         - -9.6059548947319069e+00
         - -7.9582214289316795e+00
         - 2.9181006011929962e+00
         - -3.6369004031836196e+00
         - -1.4914529324116210e+00
         - 3.1877031719019772e-01
         - 1.1883773398410067e+01
         - -1.3703804392837073e+01
         - 5.6766639088281465e+00
         - -2.7094075587694566e+00
         - 2.3858658337272787e+00
         - 6.8830471896260015e+00
         - 6.1853069825752327e-01
         - 9.7853036403696176e+00
         - -4.7000209121866501e+00
         - 4.0427350656467995e+00
         - -2.7359661904646284e+00
         - -3.2974353057431056e+00
         - -1.5567300075680637e+00
         - 1.4351740457852755e+00
         - -1.1565405430942204e+00
         - 1.5680930844365570e+00
         - 1.7229919426928044e+00
         - 2.3960822299021012e+00
         - -8.7478761134800838e+00
         - 6.5374013363196255e+00
         - 1.5265747444466304e+00
         - 3.4942255798914368e+00
         - -2.6908719543704951e+00
         - -7.0266316100119495e+00
         - -4.3015823328346547e+00
         - 4.4455378707036424e+00
         - -4.2518340068354457e+00
         - -1.6908911636777810e+00
         - 1.3714719266293626e+01
         - -7.1430446772915985e+00
         - 5.0983863415185837e+00
         - 5.6051229510026230e+00
         - -5.5512630006999508e-01
         - -4.2290761666056857e+00
         - -6.8172392295988296e+00
         - -2.7792995852509912e+00
         - -4.9853339965609944e+00
         - 3.8027191552670185e+00
         - 2.1521917430933399e+00
         - -3.3706291431265551e+00
         - 3.0162310632637399e+00
         - 5.2580778851277232e+00
         - -5.9288105502033481e+00
         - -1.0511026541279203e+00
         - -2.9293461509010843e+00
         - 2.7828717876951803e+00
         - -4.3301249890264559e+00
         - -4.8309933920552419e+00
         - 2.5024138125040758e+00
         - -1.2283992643665218e+00
         - 6.6949165955641163e+00
         - 2.0663757139426844e+00
         - -5.2762226083397010e+00
         - -2.8155374710062699e+00
         - 7.2561460576875643e+00
         - 4.5736891317729738e+00
         - -1.7992940816537278e-01
         - -6.2496726310264492e+00
         - 1.1576339984268904e+01
         - 5.8694558029381732e+00
         - -4.3162223631051706e+00
         - -5.3505750398977465e+00
         - 1.0019984535784056e+01
         - 2.3013978058230791e+00
         - -1.7678032249718953e+00
         - -5.2819153219402288e+00
         - -4.7028049031579924e+00
         - -7.4049503570193831e-01
         - -7.6799959517089187e+00
         - 2.7438435242696406e+00
         - -4.3581302527208798e+00
         - 3.7602592350023571e+00
         - -4.3510821405383666e+00
         - -5.3512675326534911e+00
         - -1.2029613458851944e+01
         - -9.9984032419732944e+00
         - 1.3985936079324854e+00
         - -3.9475336022491563e+00
         - -1.8644649553514985e+00
         - 3.0081985771703752e+00
         - 1.7294027110283722e+01
         - -7.6466409283567502e+00
         - 2.8029646214099326e+00
         - -3.7350288913638714e+00
         - 2.1071617040083179e+00
         - 1.0456987230942664e+01
         - 3.3206997369235300e+00
         - 1.7302025408351263e+01
         - -2.8624324713172928e+00
         - 2.1084537111082029e+00
         - 1.2490230868084056e+00
         - -5.1121553515524731e-01
         - -1.1243149734116569e+01
         - 7.7299727620490566e-01
         - 4.3281242532949076e+00
         - 3.0556015092765714e+00
         - -1.6735512898105300e+00
         - 3.9250279363292244e+00
         - -6.9383774387481711e+00
         - -8.8282416480627628e+00
         - -3.1518499336055092e+00
         - -2.4789884227680039e+00
         - -4.0998866780027097e+00
         - -7.0765224442226158e+00
         - -6.6078705159722073e-01
         - 6.2014569877492187e+00
         - -5.2249675544139640e+00
         - 3.7160338792409031e+00
         - 1.7475394681405270e+01
         - -7.8467284383814837e+00
         - 1.0680104892410882e+00
         - 5.9718447568873669e+00
         - 5.6249432991309645e+00
         - -2.6512902209995193e-01
         - 1.7858254071270601e+00
         - -2.7912768332750799e+00
         - 3.6921980238453300e+00
         - -3.7403573639114653e+00
         - 3.3850279808245474e+00
         - -5.2566334133693795e+00
         - 7.5456880723053716e+00
         - 4.4166699083575507e+00
         - -2.8492914852235107e+00
         - -5.1748787679116557e+00
         - 7.2621172770098790e+00
         - 9.0169759285062678e+00
         - 3.9795899781804644e+00
         - -6.6951604068270516e+00
         - 4.0404914757416854e+00
         - -2.4251800905692869e+00
         - 5.3605194294281162e+00
         - 2.4368351233914740e-01
         - -4.4757087153055393e+00
         - 5.1223770141341145e+00
         - 2.6472306278571671e+00
         - 1.4089000387981592e+00
         - -1.7201081740980606e+00
         - -2.6814405162680339e+00
         - 1.5369555010878457e+01
         - 7.8976127570373644e-01
         - -2.7747822241539941e+00
         - -3.3210441403623370e+00
         - 1.1667128162319832e+01
         - 3.2184565157112104e+00
         - 1.4300276710731912e+00
         - -6.6535015387571272e+00
         - 1.0084671095218083e+00
         - -1.8435496244264102e+00
         - -3.6780331022908572e+00
         - 8.7674343239478247e+00
         - 3.8899379869296902e+00
         - 5.4562269973204263e+00
         - -2.0606978911538647e+00
         - -4.2146992947197282e+00
         - 3.0284642645308441e-01
         - -8.2929812080893051e-01
         - 4.1169291034235886e+00
         - 5.0215144325308945e+00
         - -3.0210595414228809e+00
         - 6.7908131998805654e+00
         - 2.9182863281936799e+00
         - -9.7035406248430844e-01
         - -1.6013569597853499e+00
         - -3.1584601573632560e+00
         - 2.5214513513094334e+00
         - -4.7518134403935886e+00
         - 6.2399726610891930e+00
         - 8.5647379500398859e+00
         - -5.4799686016878280e+00
         - 3.5004926019717915e+00
         - -7.0931187821884798e+00
         - -7.2499778043688357e-01
         - -3.7534337659619408e+00
         - 2.6789690511228490e+00
         - 7.7087823978201886e-01
         - 2.2998965896765791e+00
         - 4.3012145297344295e+00
         - -2.7963654449948860e+00
         - 2.6355271605010691e+00
         - -9.6871763366369308e+00
         - -1.2271713432051501e+00
         - -4.0461533152402858e+00
         - 1.7591159659470170e+00
         - -1.7896429297254068e+00
         - -5.1794187884658882e+00
         - 7.0184270848424246e+00
         - 2.4143901069930656e+00
         - -1.6892556269818981e+00
         - 1.2999584160027911e+01
         - 4.6181349277898356e+00
         - 4.5811166359187983e+00
         - -2.2662274713433153e+00
         - 2.2014800904358465e+00
         - 8.5411837259879047e+00
         - -1.1651437730846597e+00
         - 3.1384265623465781e+00
         - 2.1480646767327203e+00
         - -4.1220542057382845e+00
         - -3.5065842996274585e+00
         - 3.2240408954464277e+00
         - -4.4004782226205670e+00
         - -2.7316272371314745e+00
         - 9.7852060342635128e-01
         - -1.4930726125375040e+00
         - -2.6169640330546442e+00
         - 1.5542718043440171e+00
         - 2.1052148294259756e+00
         - -3.7444236131457225e+00
         - -9.9696365161773004e-01
         - -1.6010503135912677e+00
         - -5.4150756362419736e+00
         - 3.5721955985091403e+00
         - 1.8922396982485947e+00
         - 3.0695995704402881e+00
         - -3.8706155915905298e+00
         - 4.4478448900119067e+00
         - -1.6883508871416799e+00
         - -5.5799952196486702e+00
         - -3.8239687247590672e+00
         - -4.8817409691952285e-01
         - -4.8001462784427007e+00
         - 5.0332999204534428e+00
         - 7.4466733266390861e+00
         - 3.5010114356600258e-01
         - -2.9613622868309504e+00
         - 8.2874585295755243e-01
         - -4.8739207225304604e+00
         - 3.4744307780215022e+00
         - -2.6095719958302919e+00
         - 5.0114578407315591e+00
         - 2.3276041459288499e+00
         - 4.6343575938372856e+00
         - -4.1788867120320443e+00
         - 1.4355550579241372e+00
         - -9.4280764056738722e+00
         - -3.3572331867852836e+00
         - 2.6189576717456884e+00
         - 4.1558824360782527e+00
         - -8.9983984282951623e-01
         - 5.9266988194498653e+00
         - 4.2491218838900577e+00
         - 4.9310527519136631e+00
         - 1.0219243573518177e+01
         - -3.4179397321051934e+00
         - -6.6119740687906448e-01
         - 1.9425179768899798e+00
         - 4.2506371577696864e+00
         - 2.2467934670642515e+00
         - 6.2883129100517463e+00
         - 1.0213300299045569e+01
         - -6.0281698441909306e+00
         - -3.3355730485978423e+00
         - 3.5686863291837501e+00
         - -1.1146363764908278e+00
         - 6.0426317827180629e+00
         - -1.7870544412780458e+00
         - 5.1601928016219638e+00
         - -2.5119221201203961e+00
         - 4.0429657487923736e+00
         - -1.0216542449780482e+01
         - -2.9078563521151573e+00
         - -1.1567747934644139e+01
         - 5.6766490078662697e+00
         - -2.9267457946267159e+00
         - -7.3068847842261029e+00
         - -1.9087455818680219e+00
         - 1.5945972214265103e+00
         - -5.5365836354397002e+00
         - -2.4804284401768761e+00
         - -7.0674822414446670e+00
         - 5.0057403615782068e+00
         - -2.3890726023169404e+00
         - 5.9702437251356777e+00
         - 1.0030635034920277e+01
         - -1.7514391839903449e+00
         - -1.5209116943016505e+00
         - 7.0609920119319183e+00
         - -1.9594304303601903e-01
         - -6.9564811671956068e+00
         - 8.2671533057307638e+00
         - -7.9115577470909031e+00
         - -5.1553522239665108e+00
         - 8.3313002921927526e-01
         - 8.3692664430564612e-01
         - -2.1467876351309769e+00
         - -6.1814928642260041e+00
         - 1.0288903525901933e+00
         - -2.9138758992795228e+00
         - 5.8466327253218831e+00
         - -6.0636049790765885e+00
         - -6.1482901623503992e+00
         - -6.7159664581094312e+00
         - 2.7872003903346170e+00
         - -3.1635652310863267e+00
         - -2.9401597578607936e+00
         - 1.4474718351375011e+00
         - -7.7986717999234967e-01
         - -7.8901315837697883e-01
         - -1.2261552935159854e+00
         - -1.4828996934232377e+00
         - 2.5871590414457870e+00
         - 1.5785629677186090e+00
         - -4.2499046741604634e+00
         - -6.1191327076918389e+00
         - 1.5988362635221032e+00
         - -3.8311893302100724e+00
         - 1.5772332581189112e+00
         - -2.9700660866230688e-01
         - -3.7355093922332951e+00
         - 5.0386522524429074e+00
         - -7.4643252420574244e+00
         - -1.9843375943610986e+00
         - -9.4558225867912356e+00
         - 2.0393240668091708e+00
         - 5.5483365271783471e+00
         - 8.7398301217605674e+00
         - 3.4592453902157159e+00
         - 2.4276769087988797e+00
         - 2.1256389969234974e+00
         - 9.8380106421913656e+00
         - 9.0193677399859684e+00
         - 8.2776199972966023e+00
         - 6.1825737003245180e+00
         - -4.2551239070414288e+00
         - 4.2495492679216600e+00
         - -7.1570964304454099e-01
         - 3.8641188313239558e+00
         - -5.6659458581236430e+00
         - 4.0538043211116710e+00
         - 3.2347093439034844e+00
         - -2.3618060565081840e+00
         - -1.1804535343186666e+00
         - -3.6933786907147912e+00
         - 3.0528658459875184e+00
         - 3.3973947380999849e+00
         - 2.4928302148305134e-01
         - 3.8695097315076259e+00
         - 1.3470017041126758e-01
         - 7.1868414692825127e+00
         - -1.7230164886075098e+01
         - -1.6424698943023119e+00
         - -5.5360380357767207e+00
         - 1.0301597469262576e+01
         - -5.2370709840121448e+00
         - 2.3991916744132169e+00
         - -7.7324204448428224e-01
         - 2.6659013693821398e+00
         - -5.3038109313759731e+00
         - 8.7490626024245977e-01
         - 8.1370737295127626e-01
         - 1.0786557803238487e+01
         - -3.0078410315818704e+00
         - 8.4606579886671422e+00
         - 5.3049985352125102e+00
         - 4.6650273113225238e-01
         - 2.5261833122716193e+00
         - -1.3499090937111527e+01
         - 8.6026344678136890e-01
         - -3.1502987112692078e+00
         - 3.0608361332300849e+00
         - -1.4811050928043636e+00
         - -3.7034131901328045e+00
         - -2.8867319867529517e-01
         - -5.7061464907693278e+00
         - -4.7747588388934101e+00
         - 6.1342370283330583e-01
         - 2.5987820299503981e+00
         - 8.8821717622807517e-01
         - 2.0508679857628573e-01
         - -4.3031297112750702e+00
         - 6.8801106597577799e-01
         - -3.2171108930904149e+00
         - 2.5337428530943251e+00
         - -4.8897381759808152e+00
         - 6.0243718920829954e+00
         - -4.6038962051745207e+00
         - 3.0948633684038875e+00
         - 3.7845141318527684e+00
         - -5.0167091947236990e+00
         - -2.2490331153708896e+00
         - -9.1989066477038630e+00
         - 4.4331933127368117e+00
         - 2.4501738605302723e+00
         - -7.1671898802119161e-01
         - -2.9801425566269457e+00
         - 1.9688042977080968e+00
         - -5.9625568277000269e+00
         - -8.8051521461947913e-01
         - 1.3826676311398052e+00
         - -3.6608866265709499e+00
         - -2.3608547163676010e+00
         - -1.0390267481875977e+00
         - 4.5291440025128216e+00
         - 1.0595662249168685e+01
         - 5.2074163195227481e+00
         - -9.1893738763579069e+00
         - 1.0311485718728692e+01
         - -3.3756666063828655e+00
         - 7.9520563316065758e+00
         - -1.9364975135271685e+01
         - -3.0768240439646114e+01
         - -1.4028042132948920e+01
         - 9.4748094353035306e+00
         - -7.5642625151928717e+00
         - -5.5056309073936669e+00
         - -6.2181753957801709e+00
         - -2.5450052064032841e-01
         - -8.6466729496388328e-01
         - -5.2470601134740926e+00
         - 7.7546813373796226e+00
         - -7.9711977481729335e+00
         - -7.8090071063402826e+00
         - 1.3000849984097146e+01
         - -3.7694622778259350e+00
         - 3.2124369980151140e+00
         - 3.4774417541916711e+00
         - -8.7829760764508435e+00
         - 5.5946401729698785e+00
         - -5.7926868113986867e+00
         - 3.6553750586178808e+01
         - -8.3022283784383806e+00
         - 5.6810271439570030e+00
         - -1.5829558304659182e+01
         - 6.4598363086516053e-01
         - 1.5111108012747184e+01
         - -4.3986077156427053e+00
         - 3.3726404948752355e+00
         - -2.5976926585964684e+00
         - -2.9265903463199634e+00
         - 4.1974194884550320e+00
         - -6.7621052730032538e+00
         - -6.2539020776616407e+00
         - -1.7844554438236869e+01
         - -1.4339032774881201e+01
         - -5.8379542108530416e+00
         - 4.6961144930784631e+00
         - 9.0358510954439559e+00
         - -3.6935386291255932e+00
         - 4.6133962189576883e+00
         - -1.2279304166455072e+01
         - 4.8514401689189146e+00
         - 2.0076343175612577e+00
         - 2.1872672893252969e+00
         - -4.1648123292416832e+00
         - -9.6269439006483726e+00
         - 1.2392201929232503e+01
         - 4.2343236699751232e+00
         - 2.7279852353342591e+00
         - 3.6430400779231862e+00
         - 2.5817053018443143e+01
         - 6.7770447220623771e+00
         - 7.9958675614916181e+00
         - 9.6878962732503093e-01
         - -3.5193596936220883e+00
         - 2.0998496532768929e+01
         - 8.6006172248693993e+00
         - 3.2784943491352769e+00
         - -1.3018361076443963e+01
         - 3.0341377029310777e+00
         - 6.0135300851463347e+00
         - 1.9647678704893416e+01
         - -2.7031324168244368e+00
         - -3.9317564541123482e+00
         - -5.1915460605006674e+00
         - -8.2248327500848939e-01
         - 7.7221985246703522e+00
         - 1.9588822561501937e+00
         - 4.2855440869957140e-01
         - 8.4064897792857085e-01
         - 1.2937854050477176e+01
         - 3.3879112107035314e+00
         - 2.1314523317388179e-01
         - -8.7644607654021101e+01
         - 7.5429318114501314e+00
         - 5.9581657659101943e+01
         - -2.2501228352712319e+00
         - 4.2456376430981466e+00
         - 3.1772330733703011e+00
         - -1.0359955254202278e+00
         - 1.2023185609382667e+00
         - -4.5072446502087713e+00
         - 5.4118038847010457e+00
         - 4.8563535272874887e+00
         - -2.6845511715749484e+00
         - -7.2877999743285882e-01
         - 6.3712433214824082e-01
         - 3.2513788020092407e+00
         - -7.5149669460361335e-01
         - 3.9889920481413532e+00
         - 7.6885509269133001e+00
         - 9.9256670163539595e-01
         - -4.3580806097218282e-02
         - -3.6993233682870983e+00
         - 5.2376534644366124e-01
         - 1.7095117633799399e+00
         - -1.9572123345954007e-01
         - 5.7944219146296128e+00
         - -2.7493430035039710e+00
         - -2.7400953466000220e-02
         - -1.0202566133816882e+01
         - 2.4307879197677265e+00
         - -5.9712527192903009e+00
         - 4.1068907370097589e+00
         - -1.9858045148663583e-01
         - -4.7777213021005842e+00
         - -8.7332800037016767e-01
         - -6.6961387637043068e-02
         - -1.7939258762588299e+00
         - -6.4503498961385173e+00
         - 2.4510859886631056e+00
         - 5.0923951520080113e+00
         - -1.1985740311737816e+00
         - 4.1075571415659313e+00
         - -4.6942353368962131e+00
         - -2.5308457543953904e+00
         - 3.2682206828319669e+00
         - 4.4328404349079635e+00
         - -1.7092779363484170e+00
         - -3.2141055421824838e+00
         - 1.5193107795120702e+00
         - -2.8832283205955687e+00
         - -1.4883473010787998e+00
         - 1.0129070418916004e+00
         - -1.9081940409258125e+00
         - 5.8021965085131768e+00
         - -7.8277379888633769e+00
         - -1.5978902498657785e+00
         - 1.1391465405809609e+00
         - 4.0698668456165166e-01
         - -9.7116932336449917e+00
         - 6.8938565550703967e-01
         - -2.5957688721202450e+00
         - -1.8366545687459264e+00
         - 4.3190495447078687e+00
         - 1.2422448795573411e+00
         - -8.1920396043238275e-01
         - 2.1605863518592550e+00
         - 1.2696191948637834e+00
         - -4.0964996883209235e+00
         - -6.6072879280385000e-01
         - 5.0889140801345856e-01
         - 9.6872264271102970e-01
         - 2.4015059958882570e-01
         - -5.8058189581269311e+00
